2571 100
이다 0.81813323 -1.4436007 0.9365387 -2.9701395 1.341128 0.55652 -0.1619413 0.36953473 -0.36542937 -0.25581717 0.36754894 -0.012280278 0.21457142 0.5120932 0.8518995 0.5355914 -1.3148328 -0.4168956 -0.6984977 -0.7223951 -0.8384197 -0.72950697 0.52754587 -0.6219369 0.09995246 0.5023386 -0.9095418 -0.12060818 0.31974724 -0.22063807 -0.6522286 0.7899877 -0.67785853 -0.5318573 -0.57656974 -0.47794613 1.3832569 1.2371358 -0.28101593 0.5990372 -0.3851045 0.35365534 2.050299 -0.6277656 0.20394745 -0.31284678 0.2784271 0.6048297 0.52760047 -0.23983905 -1.3298498 0.9329691 1.46321 1.4366922 1.4245557 0.6127559 1.6666708 1.5908468 2.0967474 1.6258243 -0.7574755 -1.7995956 0.35942763 -0.35045874 0.19985028 1.337905 -1.2391889 1.5513221 -0.25738138 0.4093349 0.438846 0.7313676 -1.5254704 -1.6382587 0.3771168 -1.250793 -0.45726487 -1.6094773 0.12797393 -0.10281931 0.5222043 0.20215285 1.1084142 0.2230718 1.1642945 -1.4740244 0.22434516 0.0035440656 -0.17439763 0.10734314 0.2599686 -0.12720385 -1.4879893 0.15691495 -0.10756502 -1.4466711 0.9784561 -0.30351177 0.26453352 0.4968579
네 -0.19238167 -0.16231084 0.009460001 0.10592564 0.561754 -0.010836074 0.7788466 0.10599342 0.15483259 1.0288852 0.45547116 0.7738801 0.27066863 -0.40031356 0.3193544 -0.024046421 0.69959635 0.40148038 1.0902599 -0.4227784 -0.8173642 0.5039418 0.1374741 1.382991 0.3421036 -0.34830683 -0.09202109 0.39185727 0.41244185 -0.7997374 -0.73486674 0.3131199 0.5908376 0.45069858 0.9190491 -0.5289283 -0.54352605 -0.2704591 -0.2284044 0.398214 0.8269361 -1.2767254 0.083011195 -0.20911683 0.39169154 0.22792025 -0.29214612 -0.35362038 -0.9052161 -0.20962499 -0.22458538 -0.09264757 0.07786726 -0.31453595 -0.33632028 0.4973353 0.74579495 -0.09698435 -0.7838728 -0.22411542 -1.2317457 1.1475766 -0.35056168 0.7524695 -0.9674823 0.018557852 -0.043911345 0.45524776 -0.57178587 -0.053521268 -0.16084641 0.23556241 -0.43342263 -0.6765606 0.34904426 -0.1276336 0.43696228 0.658438 0.37623662 0.2830528 1.243033 -1.5348278 -0.41552296 -0.20840856 0.26738626 -0.18334681 -0.7085163 0.19105703 0.9533051 0.30411923 -0.4986313 0.404289 -0.24135369 -0.65955764 -0.3454712 -0.1661112 -0.77567786 -0.43066755 -0.16353077 0.65395254
마음 -0.27199608 0.22187985 -0.077574685 -1.4232211 0.35143566 -0.6959954 -0.3127585 0.9592915 -0.104507685 0.39890257 -1.2869192 1.1573843 0.5294957 0.40556368 0.17085207 1.2624891 1.7125163 0.29220545 -2.7104642 -1.174905 -2.1822116 -1.3451768 -0.034435444 -0.36255944 1.5253043 0.84537005 -0.042444635 0.61287373 -0.054586075 -2.3250442 0.94204116 1.4949244 -1.6306514 0.03874893 -0.5697864 -0.39953598 -0.48691848 -0.15657574 0.292955 -0.5264437 1.3302346 0.6129 -1.0200502 -0.45198038 -1.4633334 -0.2951056 -0.22643884 -0.19149446 0.8363534 -1.0220962 0.8114605 1.2079709 0.24395111 -0.9298407 -1.551902 0.9054153 -0.17898895 0.34542271 -1.3437926 0.88403267 -0.98019725 1.5633498 1.9410479 0.89879435 0.4751072 0.21087268 -1.0158308 0.5249955 2.136374 -0.17998043 -0.013117381 0.8819973 -0.10225095 -1.4214736 0.18516468 0.61673427 -0.65557986 -0.9777601 0.107617095 1.0158727 1.3557767 -0.9173977 -0.68437284 1.2297677 0.63215 1.1626245 0.44055903 0.3607399 0.45118535 0.0070881 -0.35638645 -0.080247894 -0.7305905 0.15942495 0.7547682 -0.5956416 0.3810904 -1.4117664 -0.30261004 -0.66138977
들다 -1.3892146 0.16353041 -0.5571914 0.37031734 0.63393986 -0.25497362 0.7282562 0.7984681 1.2853386 0.60322845 -1.8433119 1.1670163 0.7226761 -2.1339617 -0.4107984 -0.30794346 0.6480377 -0.46315467 -1.3770831 1.130161 -0.5706037 -1.8178041 -0.31170353 1.9165593 0.44259906 0.22219114 0.2885917 -0.6338845 -0.28255922 0.41663575 0.41379657 -0.17464091 0.68617 -0.1300227 1.3130299 0.6943176 0.79339814 1.151807 -0.56588113 0.90560895 0.7389449 -0.07983486 -0.76977146 0.2516766 -0.7583834 1.9332888 1.7703495 1.2140613 -0.23139954 -0.65968215 -0.1873073 1.7370163 -0.4747872 -0.5892704 -0.3521127 0.23472711 0.09056014 0.9273401 -1.371324 1.3823105 0.18602332 -1.3086556 1.198833 1.0793618 -0.062417664 1.1784241 0.4062691 1.3135176 0.5134308 1.148532 0.95223975 -0.15912591 -0.46854925 -1.1886228 1.4484787 0.32907248 -1.5490516 -0.2050537 0.9972596 -0.6332545 1.0652847 -0.8294059 -0.15668005 1.4821962 -0.092311 0.17265134 0.6387478 -0.31782514 1.5291363 -0.40119132 -0.27989122 -1.8069501 -0.49927363 0.42025095 -0.6968956 -0.25179973 0.5564771 -0.67299753 -1.1442868 0.47683778
코디 2.4063148 -0.28020638 0.5912912 1.3794605 1.4880207 0.5195486 0.49218485 0.2248917 -1.5252337 -0.13211925 -0.32170415 0.32434195 2.1513944 0.07593626 -2.2845476 -0.3305569 -0.10131183 -0.7591493 -0.18938196 -0.63231534 -0.16854376 -0.55489445 -0.9553256 -0.020494819 1.4153281 0.5326013 0.16518249 -1.4659274 0.73822296 0.8140391 1.2472345 -0.13782866 -1.3276197 -0.20208459 1.7594831 -0.8346961 -0.5156863 0.77551574 -0.08273821 -0.6843222 0.7209542 -1.745986 0.016818268 0.13112916 0.493306 0.09062048 -0.9562412 -0.3951474 0.35828596 0.0933594 0.77929634 0.7751685 -0.95582736 -0.4490424 0.3057048 0.3269956 0.07794621 0.5504595 1.6886194 1.4592533 -0.6248789 0.7178854 1.0447989 -0.5941458 -0.6246018 -0.44991907 -1.695316 -0.38686606 0.87957525 0.056215897 0.97859573 1.0361915 -0.8232281 -1.1083608 0.08235198 -0.38513494 -2.256581 -1.9946272 1.7302306 -0.4469398 -1.825853 0.37573874 0.23908333 -0.031820238 0.5668399 -1.8925933 0.9330213 0.6966617 0.7369024 0.26141697 0.6205237 -0.44889548 -0.39550143 -0.020860778 0.09789835 -1.2058548 1.7332504 -0.834729 0.3746581 0.9376985
만 -0.296033 -0.93697935 -0.47211918 0.96613747 -0.32186487 -0.22542748 0.97552836 -0.42397922 0.41465175 0.4091869 0.019085115 -0.42063147 -0.5686782 -0.962172 0.316564 -0.29635784 0.8289534 0.30505225 -0.22971691 -0.7608952 -0.02088786 0.33652255 -0.4010123 0.6534375 1.551673 0.16161287 -0.4479409 0.60880303 0.48276147 0.6449045 0.29671794 0.16479054 -0.3549947 0.074895434 1.4324472 -0.30764434 -0.26814938 -1.0122714 0.0023406944 1.7680322 0.107405804 -1.6046695 -0.39389142 1.4637026 0.5612222 -0.4274566 -0.012797481 0.19830354 -0.48446614 0.17067982 0.6026497 0.07688221 -2.5534055 0.48106006 -1.8086909 0.094316065 0.71235335 -0.9891536 -0.8749105 -0.055353977 -2.3397267 1.8058798 -0.5953845 -1.080055 0.61764413 0.3183771 -0.41818637 -0.029968528 0.07122944 -0.21328294 0.354305 0.9476815 0.8950979 -0.10074957 1.5629052 -0.6512846 -0.71373534 -0.050100006 0.59508455 -1.0244001 0.9447866 -1.0861161 -0.7093082 0.32915768 1.4831452 0.19105504 -0.0028658407 -0.08788741 0.42852336 -0.9583223 0.12204259 2.176939 0.9172704 0.31347185 -0.924507 -0.34364033 -0.1538599 1.4150318 0.085428774 0.34246558
잠시 -0.13097751 -0.69159573 0.4043284 0.566734 0.0036073036 0.41986772 0.40586415 0.16130653 0.9193549 0.34126386 0.84818184 0.24149302 -1.4527582 -0.80488104 -0.8315568 -1.7249967 -0.1645244 1.1193147 0.73409414 0.55390733 1.0721229 -0.7304182 -0.5321394 -0.090239234 -0.1060105 -0.22343066 0.92167133 1.7813736 0.38874927 -1.7359396 0.28938457 0.8424845 -0.15290494 -0.82836366 1.9143635 0.079333924 -1.9945998 -1.2104509 0.4971874 0.5123992 0.35322535 0.2719348 0.21596554 -0.14411132 1.1454141 -1.1336974 0.24046755 -0.31034207 -0.36395106 -1.0244412 1.1385232 0.32009417 -0.7433437 0.3086864 -0.88669086 1.0464207 -0.24737462 -0.5544165 -0.33775055 1.1798804 -1.6488999 1.447398 -0.84418845 -0.591659 -1.0731708 0.30501482 0.7364909 1.1075255 -0.4626623 0.31621835 0.62429076 1.6626717 -0.39974517 -1.1030842 0.881293 -0.3530523 -0.32657945 0.3112609 1.1955138 0.3543593 0.16690582 -0.5798977 -0.98861 -0.0923483 0.712719 0.17903425 0.80453694 -1.0763801 1.2871504 -0.93348306 -1.0394568 1.8548665 -0.43848735 0.7940359 0.7987734 -0.43149304 0.3386363 1.8216077 0.5211179 1.8050729
기다리다 -0.30010763 -1.1765883 0.19492789 0.4207207 0.34322283 -0.14322744 0.116109245 0.53318506 1.4531064 0.6059636 1.5010823 -0.55467296 -0.4311172 -2.2726946 0.57236767 -2.35961 0.10483566 0.54174525 1.5360581 -0.3464847 -0.6383738 0.8616805 0.08266424 0.16733485 1.0988885 -0.4991402 0.3858683 2.1964784 -0.003487716 -1.0549717 0.67786306 -0.9281677 -0.0047596935 -1.7667099 0.608515 -1.4287679 -0.54013294 -1.1775056 0.77627504 1.3221016 -0.20614588 -0.54222935 -0.7674186 -0.18588737 1.7963618 0.016414193 0.68526053 -0.6074596 0.60690385 0.354792 0.4467697 -0.45960185 -1.5345737 0.056644205 -1.3018478 1.1719474 -0.11418821 -1.7681136 -0.19316733 1.7990164 -1.334888 1.900117 -1.5764351 0.38387293 0.4239562 -0.24487865 0.7624167 -0.606891 -0.38062453 1.3174769 -0.43629554 0.5142526 -0.5808139 -0.674721 0.37995365 0.111019045 -0.30662674 -0.38687873 0.30915457 0.06685568 2.0412378 -1.2592313 -0.99489856 0.5302897 0.18343037 -0.60826725 0.40904173 -0.8376269 1.3716892 -0.3786634 -0.8576835 1.7233236 -0.8539998 0.43448362 0.51699334 -0.23559126 -0.33280936 0.83474916 0.07922421 0.5400167
해주다 0.6507633 0.82740295 1.6185503 0.27197608 -1.096712 -0.08490888 -0.5374836 -0.23675106 0.76204956 -2.5801005 -0.6510564 -0.625986 0.5945235 -2.25272 -0.12996662 0.3920479 -0.2281345 0.11457114 -1.024794 -0.30863202 0.073953 -0.8626685 -1.3687847 -0.75364304 0.080698505 -0.058496226 -1.9475385 -0.816216 -1.6241173 -0.4248925 0.4677563 -0.53999305 -1.9849819 -0.02875426 2.3471966 -0.66540426 -0.3879237 0.50462127 -0.24571393 0.5883633 1.2568619 -0.091782294 0.16963816 -0.16768368 1.954406 0.59984475 -0.9457834 1.7339779 0.20254087 -0.70234853 -0.08874228 -1.3772817 -0.7564964 -1.579846 -2.6381998 0.07662148 3.1505265 0.8228385 0.39533564 -0.114864744 0.2477985 -0.48076776 -0.31486377 0.06882948 -0.8507703 0.58576006 -1.3561153 -0.26460633 1.2484909 0.23187068 0.8041744 1.2125245 0.8535849 -0.53379583 -0.42657086 -0.2712451 -1.123011 -1.5440583 -0.6975535 -0.027803577 0.49837694 0.26085442 -1.5161088 2.294101 -1.3114934 -0.95453286 0.76217055 -0.24025896 -0.29461998 -0.9965511 -0.6536452 0.98256373 0.33386528 -0.849526 -1.2396871 -1.2658237 -1.9530233 -0.6229517 -1.5771698 1.0962955
어떻다 -0.4043189 -0.58502513 1.0390494 -1.5400702 1.3797531 -0.7936713 0.0041938093 0.8232944 -0.35387328 -0.65759706 0.208209 -1.6290684 -0.3610155 -0.92328995 -0.2854506 0.43253854 -1.5745912 -1.0110244 -1.8790925 -2.142533 -0.14014417 -1.2108628 -0.8321886 -1.5112433 0.93405974 -1.1799729 0.43240467 -1.154182 -0.19254594 0.755633 1.0667907 0.7802445 -0.86134964 -0.29308054 -0.49593082 -0.3026323 1.1798474 0.03533851 0.24532403 -0.50898147 -0.788669 -0.7136722 0.3440306 -1.4403415 1.0706758 0.9361607 0.9470521 -0.25112244 1.1468223 -0.41723895 -0.24605656 1.6536934 1.1207833 -0.5645141 -0.075965665 0.027990181 1.6021417 0.56467026 3.2151341 1.0677005 0.5844785 -1.053261 1.0236583 -1.1018112 0.8616752 0.6312824 -1.7071187 -0.26661047 -0.1923424 1.3934743 0.5065801 1.8462297 -0.6988802 0.92981935 0.04653927 1.0198883 -1.2826706 -0.9401741 1.6991385 1.5238068 1.5100205 1.3851845 -0.37363607 -0.16190502 1.3597645 -1.8899384 1.5436814 1.0248262 -0.6174516 0.72614014 0.46557614 -0.39369062 -1.391398 0.39870414 -0.40533638 -1.3011758 1.5556725 0.42691445 0.01481241 1.0374264
로 -0.6914334 -1.5529438 -0.023320328 -1.1548681 0.7613689 0.27657115 -0.68374705 0.5927089 0.5364806 1.032032 1.8177683 0.7613758 -1.4982857 -0.29011378 1.40813 -0.3341219 -0.9673231 1.2339954 -1.3912092 -1.4586042 0.1267675 -0.68882316 -0.1839085 -0.6031194 0.82206774 -1.6027195 0.18420996 -0.56009156 0.58555007 1.0286281 -0.5159467 -0.06006393 -0.30911294 0.82169986 0.94897956 -1.2616117 0.615761 -0.3242912 -0.74846125 1.7962153 -0.4558935 -0.74507713 0.9554492 0.10189882 -0.12381469 -0.2530813 -0.3797387 -0.70019996 0.18729463 1.1794349 0.6242413 0.48819968 1.3346735 -0.8577265 1.2038915 1.4094961 1.6248447 0.47011617 0.83450836 -0.44095966 0.031322446 0.23705912 -0.8687033 -0.8589786 0.39419267 0.73303324 0.18172334 -0.5210192 0.15140393 1.0522951 -0.015645612 1.514568 0.9354325 0.2504541 0.2634115 -0.51755977 -1.4242646 -1.946445 0.6972408 -0.76738566 -1.4314877 -0.54825455 -0.86231464 0.94996756 1.2914672 -0.7862385 -0.31670073 0.83767354 1.2350112 -0.7094365 -0.8278664 1.1316946 -0.42910016 0.6414856 -0.39627475 -0.6431373 0.47247115 1.320053 2.1505814 0.896166
추천 -2.4216204 -1.9919863 -0.53639424 -0.7560213 0.55431634 0.72334 0.29764467 0.15567198 -2.4278462 0.5496262 -0.24537294 -1.409375 0.42476454 -0.5862908 0.29847807 0.07620784 -0.496328 -0.29886767 0.567459 -1.1975628 -0.052540906 0.57256716 0.22471286 -2.2003305 0.8779501 0.15008481 -0.22643705 0.04090091 2.1275492 -0.82578266 1.9051139 0.47909057 -1.5725985 -1.1476488 0.97034454 0.25336856 0.8779365 -0.63094896 -0.2084112 1.1073091 -0.2514455 0.057344865 0.8794681 0.9439597 1.0075821 -0.84014666 1.8246343 0.90141 -1.1643299 -0.7783911 1.0406649 -1.1929433 -1.0697298 1.5073297 0.58458006 0.8282303 0.35325158 1.2112303 0.37506396 1.1212521 -0.0712865 1.7032228 -0.0047644684 -1.9281037 -1.2928041 -1.506976 -1.5822916 1.866779 0.5125765 0.9714954 -0.7944742 -0.32727256 -0.38917416 0.00521213 2.3106763 0.92380905 -1.3812687 -0.6071846 1.6481727 0.7695488 1.5776848 1.9291426 -0.10519091 0.9009731 -0.4654008 -1.011175 0.4343438 1.6291047 -0.09956797 -0.6664982 -0.08885349 0.4217143 -0.3475114 -0.1728606 -0.5478072 0.6635298 -0.22795555 1.6830435 -1.336728 -0.4142766
있다 0.23189133 -1.8893514 1.5572442 -1.1524212 0.5068892 -2.3821225 -0.6199353 -0.07344037 -1.226237 1.3484732 0.8922004 -0.48577192 -0.73307043 -0.48755896 -1.3493377 0.28171632 0.42294228 1.6643808 -2.0102494 -0.069759384 1.1359619 -0.20929603 -0.34608626 -1.9195782 -1.6623805 1.1484246 -0.019087061 0.23895416 -0.09872425 0.19611757 0.30023575 -0.47144824 -0.3060619 0.24573484 -0.09657312 -0.67523 -0.062161744 -0.1807672 -0.69094205 -1.00911 -0.6795223 -2.5993416 -0.5926156 -1.2117499 0.40915906 -0.8203339 -0.48553562 0.8046323 0.61526006 0.08964292 -0.9044931 -0.58135104 -0.61455286 -0.83972615 1.5982311 1.286806 -0.44480377 -0.10370954 -0.2856189 -0.17623802 1.4841417 -1.2508113 -0.88560265 -0.81244826 0.09835493 -0.08657047 0.28575456 -1.0383418 0.46393663 0.29089627 -0.45236817 0.0767543 0.49083674 0.32512963 -0.42146847 0.046724327 0.018859094 -1.3368701 1.1085448 0.7217888 0.5328813 0.6776398 -2.5848665 0.6050516 -0.5853229 0.2931993 1.8186437 1.7659092 -0.4422315 -0.18923345 0.27365294 0.49392396 0.94432825 -0.3330548 0.20483136 0.40017906 0.2162682 0.29056266 -0.020212805 0.15568864
코디봇 0.47533458 -1.0546542 -0.98825777 1.1291384 0.6835594 -0.36198235 1.3863169 -0.579705 -0.080835134 -1.0216987 -1.1519545 -0.11510097 1.2700051 0.6157001 -2.0550027 -0.7677644 -0.7156654 0.20251757 -1.1642482 0.6812478 0.5116871 -0.15131894 1.5584685 0.34788585 -1.3216329 -1.6792154 -0.46359855 0.31952387 -0.20828675 -2.8985953 0.7843136 0.39617696 -0.29464224 1.5373355 1.6400362 -1.0234326 0.28865483 -1.098778 0.095206566 -1.2234234 -0.22568178 1.1149662 0.6181625 0.4389307 0.9533922 -0.8832068 -0.07711146 0.65118736 0.4433869 0.35571036 0.3549364 0.76711816 0.42045522 1.2816596 -0.21802372 -0.7918269 -0.8732501 -0.3778687 1.0223935 -1.4488059 -2.2593336 -0.5269878 1.1448488 0.90335125 -1.1605736 -1.1871642 0.14220631 0.21348779 1.0901707 0.8828924 -0.11631428 0.31445912 -1.6617537 0.86468625 -1.9675786 -2.4618843 0.772567 -1.9963923 -1.0900286 0.5310236 -0.019037263 -2.1745656 0.6625752 -1.354765 -0.41568193 0.17362498 -0.96122295 -2.570628 2.426562 -0.8362955 -0.30419073 -2.8189106 1.4089777 1.6489822 -1.135295 1.0630497 3.6738503 0.085371435 -0.48946205 -1.5200047
가요 2.008823 -1.3229659 -0.48096502 0.5459088 0.68840253 0.2939937 0.3788438 0.100305095 -0.8769384 0.9316811 0.86022806 -0.96327275 0.4690117 1.0261613 1.2162677 -1.8604718 -0.7272249 0.35316175 -1.4926527 0.16992605 -0.37227482 -1.5055368 -0.15431029 1.0412296 0.8155172 1.2478114 1.1405302 0.17596592 -0.3681634 -0.010456815 -0.5460981 -0.80792004 -1.573008 0.47209272 1.474888 -1.4430469 -0.13648804 -0.8460972 -0.21334438 0.8696103 -0.7556238 -0.2824943 1.0471805 -1.1625738 0.102238595 -0.6582211 0.87931705 0.35954833 -0.86810076 -0.8055395 -1.1726159 1.1475766 0.41190425 -0.3661728 0.20139661 0.35610864 -0.90411335 0.20567137 -0.05524122 -1.951406 -0.34659207 -0.72871643 -0.45965764 0.10224692 0.5769285 0.95815253 -1.4059746 0.5786011 0.08774355 -1.4826238 0.37330437 -0.4933815 -1.0280635 -0.5232173 0.14905712 -0.1854746 -1.0610403 -1.7370367 0.7381284 0.11544409 1.018552 -0.90298843 1.6466789 0.11129549 0.28918883 -0.87380797 0.01368215 0.09185232 0.7412726 -0.41397187 0.29490325 1.0128386 0.2779612 0.287323 0.8789808 -1.4747552 0.5925027 1.6456891 -0.6567154 -1.543336
좋다 -1.1177493 1.654837 0.3334484 -0.31523287 -0.109839335 0.4539378 -0.5789117 1.4247454 -1.0945598 -1.0961729 -0.6314341 -0.47225243 -1.3148639 0.40582925 0.62448555 -0.31121147 -0.2039355 1.0153489 -1.8662125 0.56344485 0.09125657 -0.39378843 0.8145947 -1.7616122 0.5687823 1.0739205 0.9282289 -0.8917388 0.6445729 1.0181851 0.4609678 -1.3256632 0.5157583 -1.0683957 0.5190521 -0.04915291 0.0063138767 0.030140078 -0.0343855 1.3586107 -0.053558346 1.4926617 -0.747159 -0.23146525 -0.41198683 -0.13672334 -0.22984706 -0.9673443 -0.6227236 0.13976379 -0.109244 0.1572512 0.40707943 -0.8314069 -0.11509596 0.8330488 0.14342685 0.30738714 0.33858395 -0.7705436 1.6093773 -1.0200222 -0.38365752 -1.5212873 0.8291942 0.068592645 -0.5835609 0.1175354 0.7519455 0.081144795 0.84433925 0.46111882 -0.54053235 0.34372038 0.51692414 1.3858871 -0.9194459 -0.46506342 1.6764926 -0.47099462 0.81323117 1.7478193 -1.3179486 1.4878228 0.28507754 -0.74622375 -0.2810426 -0.92656857 0.27337998 0.1948547 -0.6929148 -0.53642523 -0.09729198 0.26056793 0.43197075 -0.549573 -0.3574314 -0.2422572 -0.27794608 0.01433418
드릴 0.62318987 1.3847173 1.3978497 -1.108993 -0.0962295 -0.46794942 1.1548331 0.2882501 1.6839664 -1.377661 0.06899415 0.5422472 -0.11676286 -0.3139797 -1.0322527 -1.9531654 -0.88514125 -0.47814316 0.014294455 -0.682012 -0.32400906 0.22196777 0.07018999 0.21298221 1.4905338 -1.0144857 -0.9237074 -0.019012364 -1.152723 -1.3513732 2.3166857 -0.3361065 -2.375098 -0.67585135 1.2904088 -0.36883736 -0.3171532 1.0170519 1.1779817 1.7399048 -0.7456813 0.4073453 -0.40054712 1.0688593 -0.14105181 1.5800744 0.5247595 -0.6725376 -0.31408474 -0.03779096 -0.04696013 0.22872245 -0.21414341 -0.24270357 -0.71002704 0.19343778 0.7660341 -0.07810554 -0.008274949 -0.2658149 -0.90257025 -0.24866582 0.65242636 -0.08603303 1.5972472 1.1940765 -1.3606613 1.8103498 1.1476266 1.0331541 2.0620546 0.9221577 -0.7038732 0.9483106 -0.9141663 -0.32260278 0.31104404 -2.411275 1.2053044 3.0422227 0.009949661 -2.3580081 -0.6011121 -1.2293556 0.32466683 -1.775599 1.7461323 -0.60994047 -0.48758507 -0.3892452 1.3123941 -0.82796043 0.87863 0.20894371 -1.2753407 -0.50608575 2.1290994 -0.31408498 -1.2422665 -0.9971093
끄다 0.50951326 0.29908487 0.78750426 -0.3824427 0.90637845 0.5488325 1.4475704 1.264482 1.7863775 -1.0034117 0.41710442 -1.9371719 -1.1992934 0.6303492 -1.1370958 -0.43981734 -0.4749503 -0.20542412 -0.2707126 0.04616519 -1.0359296 -1.3425165 -1.5291804 0.38697082 1.676517 0.5255688 -0.5149077 -1.2434728 0.18016425 -0.014992064 1.826352 0.9293562 -0.76155096 0.49808088 1.6444119 -0.6062258 -2.3001046 1.006383 0.05106905 1.6680279 0.34003267 1.311481 -1.0824261 -0.6074307 0.22287795 0.37042102 1.9109515 0.7307708 -1.1355866 -0.1934453 -0.264269 2.3554265 -0.77293736 0.7077584 -1.7101513 0.44269633 -0.4197666 0.60503656 2.3909793 0.6437571 -0.90552247 -1.123349 0.60455024 1.4557309 0.7992722 0.67278534 0.8895442 1.116122 1.5708324 -0.11538615 0.2692779 1.6984383 -1.3606107 1.8490295 -0.11804583 -0.9287564 0.2218919 -3.423154 -0.37466365 1.225903 0.5545906 -0.7209814 -0.4372385 -1.1196746 0.7444478 -1.2565632 0.22110151 -0.30687672 0.69399816 1.2386521 0.6055699 -0.75460064 0.5346573 1.2184064 -1.8032908 0.62101996 1.5941125 1.668275 -1.4643085 -0.22056739
옷 1.1681008 0.97948706 1.1889884 0.8928914 0.69775975 0.55193305 0.14068173 -1.7313814 -1.1549166 0.76188976 -0.5893204 -0.26253903 0.4824318 0.23568243 -2.066746 -0.49819413 0.0788163 0.5095857 1.5091398 -0.2041027 -0.57245016 0.37865677 -0.024540864 -0.34934062 0.58211225 -1.5128946 -0.6146093 -1.6329398 0.16524693 1.0959921 1.6793835 0.46580952 -0.09095307 1.014919 2.4894378 -0.9069995 -0.18898909 0.1672825 0.3764619 0.79072285 1.1348614 -0.20854911 -0.36027476 0.3494091 -0.025421081 0.0015899368 -0.29214504 -0.98480374 0.9487585 -1.6077309 0.3963712 0.3297951 -1.8191191 0.41959614 0.41888088 0.48541313 -0.25494522 -0.32618296 -0.44488275 0.04002375 -0.15789656 -0.28240967 -1.6118594 1.6669513 -1.8843489 -2.4064603 0.6251707 0.30498013 1.7011042 -0.4585829 -0.007191412 -0.7703704 1.7822404 -1.1375248 -0.95705456 0.9866653 0.4453271 0.05467346 0.51259255 0.8282251 -1.03265 -0.2404142 -1.1261244 -0.42364237 -0.8963477 0.9382597 0.21651036 0.14463592 0.93240345 -0.17047824 0.076804645 -0.29376543 0.2242861 -1.3834167 -0.124447465 -0.561066 -0.02696971 -0.008410174 0.35445073 -1.3021086
바지 -1.0064255 1.393754 -0.20656215 0.73463154 -0.3351391 -0.108907245 0.24849048 -1.474611 -1.3411834 0.87663096 0.5549687 -0.06895161 0.47196746 0.22175674 -2.0755005 -0.58296835 0.5298846 1.070905 -0.76708734 -0.13014548 -0.16385604 0.68281484 -0.3409599 -0.530418 1.1180055 -1.0253278 0.7137527 -1.232464 1.0349213 0.32274392 0.25065476 -0.4119809 0.7648351 -0.096427575 0.90109086 -0.2330809 -1.0998032 -0.9625607 0.7019775 1.8677535 0.09365857 0.271197 0.5127193 0.8931298 1.2652758 0.33229554 -0.099725366 0.16991584 0.54687774 -0.68930364 0.07888373 0.021926347 0.1432129 0.021825789 0.061762355 0.794505 1.4667618 1.147868 0.06223356 0.3877955 0.7839503 0.9827984 0.025758862 0.703179 0.24506408 -0.5878843 0.2655579 0.87141776 1.1614386 -0.4545889 -0.8600458 0.2760294 0.2948566 -0.65796244 -0.16808003 0.3724452 -0.18219875 -0.6803366 1.8921744 -0.19927365 -0.42700747 -0.4242157 -0.35347784 1.0639187 -0.09370274 -0.804146 0.79237133 -0.74036944 0.15425052 0.35796446 -0.71606535 -0.2812024 0.30186856 0.40355656 -0.24204071 0.23428905 -1.0179138 0.0012412865 -0.1598761 -0.5788796
무엇 -0.8165983 0.4917235 1.6912972 0.3394051 1.1681046 0.45629582 1.3015244 -1.7899635 0.16152112 -0.5490412 -1.8075045 -0.6909066 0.21440585 0.22797383 -0.43897757 0.88126814 -0.3048777 -1.4073739 0.10229515 1.170306 1.5608178 -0.51219964 1.3641268 -0.60839665 -0.085573316 -1.1461703 -0.054741763 -0.04433005 -0.22442864 -1.0001019 0.898694 0.644064 0.63052446 2.3417542 0.08931937 -1.0215921 1.8708876 1.3225069 -1.0222749 -1.5047667 0.12883355 1.0034196 -1.2754679 -0.27387673 -1.3775074 1.447056 0.7714575 -0.94629335 1.4691837 1.2196337 0.36627537 2.0254178 0.8911879 1.3322072 -0.65904605 -0.6761635 -0.5998225 0.5968836 1.3916001 -0.45612615 -1.2334982 0.45009235 0.7676434 1.6086631 0.67134774 -0.9821259 0.43015662 -0.4803974 2.4810624 0.19493978 -0.20155682 1.9515351 0.1527923 1.7329179 -1.2106826 0.6019135 0.68283427 0.55726254 -0.65984035 2.3012073 -0.46454927 0.2422932 -0.23011138 -2.4636085 0.27345735 0.14311144 0.983127 -0.7335822 1.0959941 -1.2560427 0.8530316 -2.4209998 -0.6767786 -0.20078689 -1.9387226 0.21406828 1.9851587 0.67770356 -1.4936534 -1.7150471
같다 -0.07951647 0.9711543 0.02613811 0.28969306 -1.0551087 -1.0214708 -0.62002075 1.828246 -1.3823017 0.57776237 -0.320487 1.5002801 1.2031046 -0.35835645 0.43033528 -0.65982395 1.4704269 0.9618522 0.07862197 -1.3343046 0.07240657 0.56626064 -0.38144442 -0.57061976 0.3773677 0.536295 0.86499554 -2.6609457 0.9485962 0.33880728 1.4034797 -2.0721827 -1.954359 -1.2799078 -0.46686283 0.18517084 -1.1200023 1.1345524 1.0501753 2.8892887 0.70126915 -0.07411605 0.3157662 0.20876293 -0.29209253 0.0396243 -0.6315909 1.8013618 1.0993305 -0.4501231 -0.38325632 1.4747497 1.1395104 1.13532 0.74408525 0.7690973 1.4843936 0.67879295 -0.056671463 0.8100565 0.6052912 0.46314737 -0.5681723 -0.4901762 -0.5352965 -0.73042434 0.75626427 1.7847531 -0.31730425 -1.6250204 -0.0060018096 1.0772637 0.6319412 0.36376128 1.1410276 2.8638637 0.8572624 -0.92593163 1.5425731 -1.1801748 1.7120085 0.86634874 -1.6873472 -0.155343 0.74642926 -1.0011095 0.35423985 0.648864 -0.8054632 -0.16532674 -1.2439464 0.7368655 1.7700187 -1.1301793 0.96207964 0.36832854 -1.8749498 -1.5873175 0.73754346 -0.54964226
이용 -0.9551584 -2.611817 0.3074524 -1.842416 1.9087546 1.3238195 1.607491 0.82469136 0.009292207 0.7574107 -1.1319644 0.530864 -0.046367824 0.2524249 1.0865189 -0.16415693 -0.31404236 -0.2327397 0.99221784 0.2796081 -1.4584874 0.14664915 0.34192735 0.69872236 -0.40028846 -0.6159957 -1.0229824 -0.31859127 -0.31125525 -1.7847525 -0.023388173 0.011187471 -0.90142024 0.40437123 0.103185944 -0.9742184 0.2535425 0.49585864 -1.5359211 0.07713965 0.10965438 -0.055782 -0.8916288 0.39777786 -2.0101135 -1.2584991 -0.025272256 -0.61005884 -0.8913974 0.48700196 0.73678845 1.5612394 -0.62778777 1.4454325 1.0654644 0.7678772 -1.2617013 0.5052953 0.4232059 -0.4088804 -1.1001369 0.7434634 1.5462785 0.3067598 -0.24706228 1.3296081 0.13972957 1.1231686 0.16443695 2.0027788 1.6083269 0.25263414 0.34564692 -0.5525617 0.34558815 -1.8685793 -1.0648817 -1.6175946 -0.25459862 1.022236 1.8581549 -1.7577516 1.1841093 -0.36861348 0.00895251 0.95408964 1.1768316 -0.47985718 2.1442163 0.74893934 1.5775822 -0.79018337 0.9681253 0.3847268 0.32658452 0.021349093 2.2844403 0.18702501 -1.1742086 -0.0045014364
느낌 -0.68883353 -2.052255 0.0029499445 -0.6479075 0.39494383 1.2811984 -0.67921287 0.46289566 -0.5907145 -0.0186225 -0.60962003 -2.170028 -0.16236113 1.7225213 -0.5511513 1.7927506 -3.7414548 -1.3 -2.3713224 -0.4971583 1.1118556 1.193392 1.8460085 1.4182454 0.29205343 -0.6411672 -0.6885478 1.016912 -0.54931283 -1.3674587 0.3679123 0.74208456 0.08879602 -1.3854607 -1.6086147 0.111044355 1.0951169 -0.11454308 -1.6228352 0.4259561 0.047519643 -0.1608791 1.31333 0.025793165 -0.7828331 -0.09302163 -0.15256204 -0.7695765 0.7646843 0.48150584 -0.5758194 1.5355347 0.42815876 -0.27290136 1.354476 0.55685985 1.4246656 -1.2371114 1.159886 -0.57038724 1.2149491 0.72452277 2.7672784 -1.0350378 1.2354891 0.69938314 0.07429477 -1.2938064 -0.57995963 0.08303741 1.5263342 1.6588606 0.5406221 -2.0840979 -0.36078873 -0.002937471 -2.7166336 0.4218354 1.1438991 -1.0841608 0.78779113 1.1928194 0.41450533 0.46446112 -0.34575018 -2.2074995 1.927386 -0.70514053 0.41667417 2.3855948 0.5291077 -0.24672627 -0.58134246 -0.39491472 0.7010019 0.2630904 -0.54070854 0.74736357 -0.655754 1.0664669
스타일 0.3742786 -0.24345876 0.13383536 0.06621253 -0.32985082 0.010855832 1.2464464 -1.1720892 -0.42842245 0.16707857 -0.49676523 -2.028545 -0.34855777 -0.5935984 -1.2126364 -0.6768774 -1.2042522 -0.8803318 -0.2720793 -0.31814438 0.21072914 0.16157977 -0.49711022 0.6547026 1.0849053 -0.4482889 -0.1181925 0.2762619 0.64858043 -0.7915875 1.3562349 -0.15739848 -0.23582801 -0.83633447 0.54310244 0.69366217 -0.11609072 -0.7765661 -0.10444789 1.2100351 1.149249 -0.68080986 -0.37880957 0.6262699 -0.56405884 1.7944611 -0.30971527 0.12594303 1.1495746 -1.5120196 -0.04086495 0.15391292 -0.9379452 0.5203443 0.28343612 -1.0600867 0.10652075 -1.3171185 0.28171027 -1.5149206 -0.24588819 0.3315358 -0.47361153 0.6258497 -0.18555681 -1.063507 -0.6081009 0.94706106 0.04811663 -0.21152641 -0.6901564 1.1561757 1.0394465 -0.36083013 -0.61594623 0.68453234 -0.34537446 1.9837476 0.9876479 0.7751794 0.17108041 0.7358016 -0.20830351 -0.30380479 -0.78101814 0.20047487 2.1161885 -0.2152511 0.443986 1.6186967 -0.12914684 0.51783967 -0.81599796 -0.8061074 0.50577176 0.30370265 -0.47221482 1.2705053 -0.57653207 0.01855309
것 0.14085856 1.763998 0.514751 -0.040577993 -2.3203356 0.7050673 -0.16120017 -0.8694446 -2.0882869 0.28209618 -0.87965965 0.9423565 -2.0337539 -1.5146946 -1.6257991 0.27041322 2.6246312 0.5623525 -0.033275373 -1.2131683 0.21582432 -0.08008039 -0.14584719 -1.1918842 1.3959959 -0.12981454 -0.23025592 -1.1895738 0.98252016 0.37918675 1.0490232 0.22683583 1.0414134 0.04649375 1.3059338 0.096357204 0.07988889 -0.6304626 -0.40447298 2.480253 0.83994466 -0.6227441 0.6506203 -0.83345264 -1.0372902 0.3805064 -0.9424964 0.5593021 1.0028635 -0.5686152 -0.3122664 -0.42938513 -0.01581146 -0.36470008 -0.09691433 -0.2916385 1.312261 1.6452972 -0.4970757 0.052327376 -0.36038014 -0.23167974 -1.6231819 0.9584729 0.06085141 -0.11465294 1.249739 1.306347 0.84503543 -0.79687965 -1.1996186 0.6382063 0.17987196 -1.0644181 0.3042236 0.693398 -0.11961397 1.4013624 1.3393219 0.945017 -1.517198 0.45864385 -0.6321074 -0.080663234 -0.97734904 -0.3226525 -1.5838692 0.84849656 -0.0078005167 1.682885 0.48719344 -0.6128181 -0.36246008 0.612861 -0.468944 -0.77518195 -0.66574293 1.3045228 -0.18258806 -0.8825111
안녕하다 0.9252557 -0.15944047 1.107896 1.7680374 -0.18705086 0.17147303 2.2631598 -0.61844575 0.048484858 -0.47117934 0.21076162 -0.79690045 -0.170612 2.2734075 -0.88743836 -0.8789697 -0.3033459 -0.65513664 -0.11654201 0.91041005 -0.2609981 0.28045323 2.236834 0.2097564 -0.6962223 -1.0849272 -1.565389 -1.4635807 -0.94638914 0.17871757 0.28792065 -0.40987515 -0.05371621 2.110587 1.180801 -2.1668715 0.78303534 1.6498798 -0.387192 -1.263448 -1.3261808 2.621047 0.4012017 -0.335721 -0.8924517 -0.21885365 1.6165946 -0.90112174 0.50197136 1.6374847 1.4366826 0.43809733 -0.5124679 0.6053454 -1.2736225 -0.6385521 -1.2143438 -1.024983 0.19844678 -1.8598185 -2.6240885 -1.2482228 0.32797453 1.5512152 0.23659188 -1.3695369 -0.17589562 -0.7422768 0.9469032 0.82375544 0.4532623 -0.03786557 -0.63628894 1.1775959 -2.1798258 -0.5172608 0.31638217 -0.8131111 -0.67803514 2.1136048 0.36725125 -0.9758997 -0.11446785 -1.1331493 -0.8116205 0.7045668 -0.66562426 -1.479666 0.3654385 -0.27633023 1.177142 -0.81737053 -0.5120438 0.9984108 -2.8636675 -0.5044343 0.79921466 -0.38380206 -0.88754994 -1.26531
어울리다 1.0768445 -0.28288776 -1.3481191 -1.1219442 -0.8142194 0.70740247 -0.0036872542 0.16556175 -0.7922225 0.72212416 -1.299027 0.6103306 1.493073 0.16261454 1.695623 0.19730403 -0.17206961 0.36485696 -1.8596661 0.41715345 -1.488943 -0.7272294 -0.2739725 -0.19464262 0.602123 0.8442063 -0.8751253 -1.5291672 0.5608405 -0.49628207 2.1186683 0.16466495 -0.22984812 -1.097275 0.20012653 0.3475595 1.1891448 0.3382435 -0.14183575 0.5743608 2.026326 0.74424714 0.91841483 -1.8240429 -1.4085838 0.69829243 -0.00816531 1.4704776 0.67440635 -0.8636432 0.96021825 1.9497577 -0.19836307 0.7331555 -2.8298774 0.8227088 0.31706437 -1.421311 -0.74743634 0.80315644 0.26210594 -0.35697508 0.09239393 -2.2856877 -0.3875774 -0.7102179 -0.49409083 -0.34438595 -0.54205674 -0.51298314 1.1220686 0.8081131 -2.7525222 0.74079245 0.69764477 -0.18639825 -0.94137144 0.12613112 0.38297513 0.2057153 0.8006316 0.57668185 -0.21199468 2.3632023 -0.68613154 0.74557066 -0.2728759 1.003878 1.9002994 0.6239172 0.7173646 1.4705293 0.5962181 2.3010755 0.33442092 -1.9030896 0.6695903 2.5800774 -2.334331 0.08409144
감사하다 -1.0942113 -1.2249471 -0.35686564 1.0374578 1.1960967 0.9594584 -0.35824332 -0.09858625 0.21199985 0.23623121 -0.9713946 -0.60969216 1.3576247 1.5173883 -2.1672883 0.02073118 0.5330931 0.41137767 0.93094397 0.2241354 -0.08967939 0.36345476 0.38863054 0.8357487 -0.25194007 -1.297765 -2.8526344 0.44642118 -1.0366743 -1.424036 0.93367857 1.4832951 0.5965329 0.637326 0.3498882 0.2771676 0.41628438 0.51421535 -1.081761 0.09314799 -0.34427196 0.58247024 -1.6422226 1.029883 -1.790858 -1.0837789 0.8579591 -0.11236346 1.4419348 0.8076143 1.0666991 1.0866365 -1.0087527 0.5328555 0.76943046 -0.36792418 -1.3082433 -0.6390518 -1.2669854 1.3299965 -1.7710481 0.24630632 2.276551 2.996207 -0.8569001 -1.2125665 0.4371716 0.30479863 0.83603376 0.8605007 1.0343764 0.25518218 0.92889297 -1.4661641 -1.5090984 -2.0511007 -0.13668907 -0.19549118 -0.19721334 0.48336658 0.40234202 -1.9742603 0.6576049 -1.868319 0.6731721 1.2976458 -0.33491006 -0.901687 1.0268837 -0.7011167 -0.046638127 -1.7951343 -0.658346 0.06709305 0.0732927 0.91313183 1.1344361 -0.8853556 -1.1875126 0.0032874243
찾다 -0.43500432 -2.5221016 0.08877657 -0.41247773 -0.030810826 -0.47043136 1.6889871 -0.6646789 -0.72597903 0.30887392 0.05750546 -0.8061886 0.39686647 -1.000663 0.20406647 0.21673462 -0.48487929 -1.0603733 0.8062592 -0.06495943 1.1984371 0.6251332 0.3555591 -1.0535136 -2.1742887 -0.03284553 -0.26666793 0.7783187 -0.9711755 -1.983485 1.1611565 0.4284008 -2.219997 -1.1096588 2.104602 -0.88995975 -0.0702582 0.056892008 -1.3199583 0.44256487 -0.40015587 -0.6592044 -0.1675205 -0.41170135 0.3103582 -0.4173032 2.4926298 1.1898282 -1.2058135 0.19358644 -0.51888144 0.15308887 0.51525664 -0.065922834 -1.2616905 -1.0446045 -0.8912976 0.8519612 -1.3626876 -0.89197266 -1.5365813 -0.1646257 0.024059648 0.34025046 -0.41402477 1.0414747 -0.6004907 0.34019694 1.5779861 -0.38329777 -0.07703696 0.5458592 -0.7242068 0.981708 -1.0845534 0.46964157 0.32127818 -0.50273937 0.5009947 0.37215617 0.537926 0.28410125 0.27439612 -0.6780647 -0.8780272 -0.5136204 1.005018 -0.2556437 1.0035018 -0.30751386 0.26173776 -1.6330948 -1.0378844 -0.9346045 -0.9750507 -1.0354191 0.086882986 -0.02643987 -1.9294358 -2.4508584
없다 -0.077389136 -1.3050792 0.60056674 -1.8042877 0.096305065 -1.119403 -0.42663 0.71561015 -0.63382274 0.27774802 0.7776184 0.13158786 -1.9089589 -2.5228686 -0.7069556 0.15237565 1.3623639 0.5838212 -1.0896785 -0.11299187 0.7703004 0.19943029 -0.40522102 -1.5171927 -0.40136096 1.9671506 0.64930135 -0.3040372 -0.1323172 0.25694823 1.2878611 -0.21417922 -0.68678963 -0.052143764 0.56723905 -0.32286534 -0.0065125003 -0.8557687 -0.6623217 -0.07826034 0.471583 -1.1946982 -0.7490929 0.12391512 -0.8788598 -1.0677474 -0.4348801 0.034809228 0.41621107 -0.35441384 -0.6444361 1.0020572 0.16241863 -1.2556882 0.88548654 0.40208808 0.07068522 0.37402195 0.7438331 1.3779073 0.352805 -0.9309012 -1.5208529 -1.3669996 0.71508473 1.0667062 0.48075762 1.0127696 0.0936561 0.10743185 -1.2650738 0.57833827 0.45725387 0.0537983 -0.2838898 -0.09056835 0.16475704 -0.3554954 0.11906857 -0.23068537 1.0600874 0.38126343 -1.1811795 0.31455153 0.34696287 -0.1395845 1.9521475 -0.1852575 -0.33609518 -0.10146402 -0.16715685 0.2436724 0.29807365 -0.6133135 -0.40276614 0.13647115 -0.78144103 0.9647383 -0.39393154 -0.5157983
신발 0.07655863 1.0084672 -0.60835826 -0.34188402 -0.29002059 0.32009396 0.7937254 -0.017446188 -0.89716005 1.1181518 -0.017553441 0.41976583 0.3867935 -0.96844286 -0.15071881 -1.4169348 1.5826116 0.23692374 -0.1026476 0.56186485 0.5375038 -0.26824325 0.5677175 0.12916233 0.89833426 0.9857726 -0.53489953 -0.7503967 0.6352677 -0.51496154 0.056979973 -1.015053 0.2982573 -0.13754511 0.82427 0.36204135 -1.417403 0.3328056 -0.1680468 1.3045748 0.9825608 -0.70592695 0.6847573 -0.7649163 -0.0061493996 0.55826694 -0.12593108 0.42766103 0.48283914 0.47574067 0.3812876 -0.6023517 -0.8778647 -0.09502556 -0.34275213 2.1183887 1.5193467 -0.013073713 -0.73336416 0.34680626 -0.33720037 1.5148009 0.36323243 0.96555 -0.36315045 -0.068621285 -0.06628317 1.3286096 0.6943441 -1.0823035 -0.6900129 0.7657269 0.8966009 -0.97468746 1.1358057 0.1976468 0.2565021 0.2642646 0.15909865 0.24014448 -0.78214353 0.5455921 -0.89062756 0.40380022 0.24935074 -0.29382542 0.96641594 -0.83106774 0.023120578 -0.20075823 -0.1486628 -0.5962203 0.1656555 -0.25906703 -0.57704717 1.215077 -1.1673387 0.41495523 0.38867623 -0.23897359
드리다 1.0047404 -0.909507 0.40997985 -2.1953268 -0.08691826 -1.3694682 1.5955694 2.012223 2.0636253 -0.6095932 2.3720803 0.1664273 -2.050381 -1.6841236 -1.602428 -0.9102419 0.68923175 -1.2489213 0.2499784 -1.128027 -2.2196612 -0.48397404 -1.1318605 1.0493889 1.0400038 -0.933797 -2.307834 0.18858096 0.12586938 -0.56482613 0.09884981 0.8341349 -1.4139946 0.31952235 1.342821 -0.23831975 -1.1927464 0.10266565 1.1958244 0.9509658 -0.50234693 -1.3995806 0.25640664 -0.18199752 0.29872337 -0.7552435 0.41727665 0.8152733 -0.7422431 -1.0789677 -0.68083495 0.18073967 -0.83512324 -0.875419 -0.4325347 -0.8646076 0.64881206 -0.7100497 0.75875115 1.2120665 -1.7524287 -0.7971626 -0.1752553 0.7546554 0.5181579 1.4631736 -0.82042265 2.1935453 -0.55102026 0.748952 1.0404611 0.599109 -0.89971185 -0.58570343 -0.75968575 -1.1043247 -0.38456833 -2.111193 0.03227432 1.4631014 2.361213 -2.7571647 -0.6614579 -0.037805516 1.5193355 -0.057300203 0.83622384 0.6359261 0.23583946 0.077494524 0.26276535 0.37810507 0.7722601 0.73418903 -0.5114896 0.5518837 1.4572681 -0.22201428 -0.8335662 1.6275203
되다 0.5113274 0.89676154 2.1880016 -0.9678454 0.20964015 -0.5640629 0.9866095 0.60951144 -0.22955841 0.52506346 -0.74533534 -1.6975598 -0.29651847 1.082041 0.8900243 0.5617753 -0.57492083 0.15751171 -1.3019454 0.2858834 -0.6275906 -0.04395119 -0.0623452 0.6288167 0.56573325 -0.76155823 0.059598092 -0.41257083 1.1401576 -0.657763 1.1241423 -0.50528675 0.110081464 0.11010111 0.15797244 -0.56491685 -0.25275785 -0.482543 -0.36247662 -1.1259224 0.30945593 -2.079595 1.2430435 0.84586 0.8965264 0.9019793 2.6101773 -1.1644864 -1.0380821 -0.3659788 -0.7725703 0.035582997 0.49845165 0.34910023 -1.445709 0.38798067 1.1299024 1.6143805 1.254727 -0.6830136 0.66206944 -0.32924932 0.105934225 -1.1779957 0.7123269 0.41209972 -0.50359505 1.1413766 0.6699613 -0.34901124 0.97862273 0.08383075 -2.549444 0.71281046 0.9251541 -0.47363132 0.0051057446 -1.2391927 2.1196034 -0.0022783545 -0.09481089 0.7273868 -0.9874112 0.068455175 -0.25398725 0.72411734 2.436444 -0.49772698 0.58377147 2.0251942 -0.17321864 0.6005873 -1.4292918 0.7184542 0.32447523 -1.8374999 1.4802505 -0.1326702 0.66501075 -0.13035604
보이다 0.6110617 -0.016757088 -0.61588913 -1.1201481 -0.29949638 -0.8249745 -0.19838224 -1.3099145 -1.128096 -0.2354663 -1.1218657 -0.21053341 0.9037365 -0.2805686 0.8822769 0.9019708 -0.16062509 -0.5311789 -0.47596672 -0.06531198 1.1897715 -0.28852037 0.3832095 -0.12028357 0.33845246 -0.48362872 0.89342195 0.7434445 0.8240742 -0.38027188 0.32825643 0.33226565 -0.35827902 -1.9539026 0.095922895 -0.20153627 -0.2426614 -0.96624494 -1.6211417 2.0222645 1.1936202 0.69985336 1.1583487 0.59408075 0.40923932 -0.24892682 -0.2666114 1.8154306 0.5339547 -0.014295736 -0.86995524 1.3945224 1.2472962 1.2895575 -0.82740104 0.09378963 0.7157071 2.5457492 1.1867886 -0.46068546 -1.0818305 0.82985806 -0.13152586 -0.29657316 2.1332343 -0.3838241 0.9389435 0.1542421 -0.55950654 0.74986994 -0.2610975 1.689832 -0.2690669 0.75070226 2.1095893 1.4134202 1.4294745 -0.65120435 1.70559 -0.6070712 -0.7941997 -0.87760097 1.2545363 0.054572627 0.5786413 -2.1898735 0.27408695 -0.6942549 0.1354569 0.94410884 -0.6447793 -1.3624241 -2.1161146 0.091478474 -0.65902025 -0.4347647 -0.5295148 0.11253106 1.5511197 -0.78251475
요 0.15636022 2.0689518 0.32830244 2.0063615 -0.16868748 -1.0002689 0.7551427 0.06511107 0.811318 0.9538803 -0.8020391 0.49083135 1.5540285 -1.3739457 -1.0912161 -0.87863415 -0.7535775 -0.1608656 -1.9945683 0.42773816 1.1716682 -0.7951697 1.6705827 -0.0735246 0.75490546 1.0939281 1.7056748 0.4619853 0.7810593 -0.9747599 0.9830884 -0.48356044 -0.5377519 -3.2346644 0.8747369 0.3717038 0.2297777 -0.57677686 0.15143271 0.93323374 -0.27670538 0.29271784 0.32544196 0.9564753 1.4408692 0.40325195 -0.35640308 0.46568513 -0.2110989 -0.36722133 0.3447198 -0.27092057 -1.7641493 0.78874594 -1.187614 1.4217237 2.3697271 0.58954704 -1.2361753 0.8087026 -1.1563966 -1.8754944 -0.7181164 -0.27973375 -0.6988644 0.415088 -1.4643451 2.0433688 1.987399 -0.4291324 -1.1389313 -0.39345312 -1.693612 -1.1636558 1.280793 -0.02042909 -0.5828974 0.14805128 -0.12172541 0.9276094 0.14084116 -0.9859183 -1.1216986 1.8660733 0.63138 -0.6421271 -1.2825501 -0.08775187 0.7163573 -0.43551013 -1.1222358 1.7420214 -0.046571728 -1.9923077 -0.44312733 -1.3353951 -0.76218516 0.4522122 -0.8550567 0.68003494
원피스 -0.63477707 1.5216295 0.49286565 -0.0018340622 -0.017489234 -0.15027872 -0.65803295 -1.096109 -1.4308928 0.7955264 -0.03091185 -1.0840222 0.7073596 -1.2407168 -2.067336 0.7876649 -0.9928721 0.90991557 -0.17964779 -0.93126625 -0.048501797 0.12961538 0.8217147 0.24326853 0.56411433 -0.5941007 -0.36468673 -2.0683975 0.20166086 -0.89047503 1.2273877 1.5682089 0.34831172 0.25091586 0.8099983 -0.21328215 0.25319684 -0.3293637 -0.03524381 0.7762737 0.9392687 0.058318682 -0.06611355 0.09074089 1.4412143 0.51172155 0.4058562 -0.056635696 0.11881352 0.41553813 -1.9134831 1.224792 0.0901962 -0.34526575 1.3434432 1.1027775 -0.42806187 0.14631563 1.0649709 -0.38023186 0.004860696 0.19233087 1.3501729 0.07571734 -1.5370246 -1.9591918 0.52303344 0.15384647 -0.22340725 -0.49846432 -0.50133884 0.52380455 -0.524532 -1.36926 -0.27933642 0.315951 -1.7352444 -1.3944337 0.3772238 0.5712307 -0.25540242 0.64765674 -0.50596756 0.340529 -0.7745246 -1.2146554 0.5658245 -0.82071286 -0.012949214 0.41482803 -0.33742258 -0.02056191 0.5181949 -0.7474081 0.47298637 -0.41364107 -0.58837783 0.5151754 -0.0864722 -0.5778122
색상 -0.7474592 -0.49498758 0.81127506 -0.22307593 1.9690729 1.199852 -0.8921554 -0.5638559 -0.3520399 -0.18220663 -0.116488 -1.7299402 0.7152532 -0.06320625 0.62521124 -1.8209999 -0.92605525 -1.1228179 -0.93124276 -0.57299656 2.2923138 0.00896057 -0.19455001 -0.23075356 1.4626875 0.78049695 0.23746713 -1.0788746 -0.46624973 0.12222875 0.86245084 -1.0845118 0.18336809 -0.30814478 -0.64714897 0.060474694 1.1315305 -0.9057016 0.7877481 1.3173878 1.9029675 -0.45906743 0.43855152 -0.93619543 1.3711944 -0.06972037 -0.20720682 0.009388517 0.50674415 1.0780796 -1.4501163 -0.17702481 1.2466764 0.9288539 -1.2251359 0.2604272 0.41099343 0.21326306 -0.73861015 0.6630982 -1.4269006 0.082895435 1.2414122 -0.81117344 -0.40679517 -0.7652887 1.0298718 -0.099998735 -0.93774945 -0.4039495 2.1809208 1.1584038 0.0769241 -1.5532781 -1.0325226 0.16865066 -0.82507604 1.9334798 -0.45679814 1.1715603 -0.2784721 1.2258036 0.23897228 -1.4455994 0.15472284 -0.6888245 0.27531376 0.08510835 -0.19017829 -0.17088762 1.541099 2.1626925 -0.5997616 -0.15389815 1.2772511 0.5109133 -0.14054507 0.9784349 1.1634727 0.9554326
아이템 2.0155287 -0.37738326 1.7045459 -0.6273399 2.0042589 -1.5886253 -1.8491682 -1.4583619 -0.26926345 -0.18046163 0.2973864 -0.046816364 0.033422317 -0.14218204 -1.95437 -0.8189677 1.5346092 1.5924549 0.7845154 0.6077552 -0.013691011 -1.061171 0.29365376 -0.12106008 1.8674239 -0.51010245 -1.1132698 -0.98174345 0.6185766 -0.7292129 0.6627993 0.78167784 -0.5157198 0.87062895 2.221847 -1.7119015 -0.24660273 0.20727609 0.6418928 1.1955221 1.8102528 -0.6565395 -0.18336287 0.7674151 1.0185508 0.8233001 1.199627 -0.20444328 1.078913 -1.2029136 -1.0029964 -0.24053319 -1.163312 -0.77429307 -0.28536445 -0.97738093 -0.25866604 -0.86221814 -0.09110355 2.9540484 -0.31103998 -1.3397902 0.47543165 0.42321068 -0.33538315 -1.5327653 -0.11584754 1.2017181 0.56932765 -0.3713344 0.49466193 1.032674 0.68270713 -1.2577116 -0.59803617 1.0875773 1.3446527 0.6073413 1.2986293 -0.016702512 -1.7524766 -0.89092535 0.14803661 -0.6985495 1.4856855 -1.0328969 -0.7693913 -0.7112645 2.2689416 1.5773011 0.42375144 -0.23960054 0.33237475 -1.220533 1.6549807 0.15670243 1.2953951 0.15650725 1.3354492 -0.5786109
더 -0.5913103 0.15827022 0.6557357 0.9586171 0.040941797 -0.69015825 -0.11867364 0.39218286 -1.835573 -0.52290326 0.37161824 -0.09852103 -0.19911131 -2.7087026 0.008527291 -0.1830996 0.20508175 0.6398438 0.11334042 -0.79982275 1.6905248 -0.19953762 -1.0360218 0.56406766 1.0765165 -0.34314743 -1.1890852 -0.22635193 -0.69237244 1.2620333 1.235646 -0.58702576 0.95176417 -1.4676987 0.3917842 0.6285409 -1.6852618 -1.6800267 -0.70837796 1.3662401 -0.03230521 -0.14854142 -0.8673626 -0.7422008 -1.1694329 -1.1590588 -1.1772997 -0.478601 1.4100956 0.7126012 0.8705812 1.1143422 1.1278166 -0.25428367 0.3192252 0.29121995 1.411828 0.44632152 1.243949 0.7302002 -0.3502344 -0.43861222 0.459911 0.18048392 -1.4352157 0.5993051 0.8779933 0.32627425 0.35679463 0.74268377 -1.383234 0.80176324 -0.3564496 0.7346862 0.029387614 1.4308692 -0.023077976 -0.06880894 1.7235988 -0.419328 0.9335408 0.2641487 0.7054635 0.28672603 2.019712 0.38043362 1.4110179 -0.48395205 -0.30006662 0.39636412 -0.78992665 1.268884 -1.1024228 -0.61944073 0.28654072 -0.36767063 -1.3745929 0.5282591 0.09086296 0.24889705
해드리다 2.2865763 -0.7113364 2.3877394 -1.8397717 -0.93945754 0.041710954 -0.77356666 -0.4613686 0.22788878 -2.051374 1.9559187 -0.58140016 0.16091919 -2.331244 0.4153596 -0.5365645 -1.9847873 -1.2015052 0.3651138 -0.14227591 -0.3911478 -0.7521117 -1.8474714 -0.3633284 0.34271052 0.43643177 -2.3887947 0.5024868 -1.0475051 0.043529145 -0.10490333 0.97052944 -1.1214998 0.21935238 2.6052463 -1.5862334 -1.0390946 -0.76967907 1.1711309 0.7113207 1.9240929 -2.0180357 1.6722324 -1.260021 3.7535133 0.39717424 -0.017124426 1.9144976 0.78251684 -0.3425433 -0.6732202 -0.7495249 0.048679393 -1.9416214 -2.93219 0.22858137 1.9728892 0.22579959 2.7341306 -0.96091574 0.15811457 -0.17376678 -0.6560439 -1.1042342 -0.1982774 1.5009567 -1.5837837 -0.11240858 -0.3957023 -0.90312 0.6975116 1.3798463 -1.1516837 -0.8562706 -1.4095472 0.53476906 0.47606644 -1.2396867 0.6536412 -1.1735251 1.4847248 -0.8605619 0.21643746 2.0039167 0.4689976 -2.3915362 1.7796974 0.19408002 0.18006639 -0.22538157 -0.3443463 1.2894571 0.54558337 0.29196578 -0.92835957 -1.3813176 0.07057712 0.05832482 -1.136505 1.0199311
보여주다 -1.2321869 -0.10061657 -0.57166564 -0.41936094 -0.084388144 -0.32609606 -0.4778879 0.33676097 -0.20245482 -0.7900616 0.016520387 -0.4229395 0.4331327 -1.4737089 0.8530846 0.27366513 -0.13522115 0.35765252 -0.53676647 -0.07078001 0.49833536 0.56066054 -1.4775124 -1.6761141 1.2031747 1.0334374 0.23194711 0.07623436 1.327744 -0.8784717 1.3949081 -0.456542 -2.1515675 -1.5278835 0.7169593 1.0856174 -0.52052754 -0.29990247 -0.1827137 1.3857338 0.8456773 -0.35201332 0.30397272 0.7880938 0.8465115 -0.09942357 1.0215833 2.1592486 -1.1840792 -0.1738237 -0.7167888 -0.93054086 0.3319673 -0.6736777 -0.22667746 -0.13079025 0.79038066 2.2686176 0.22916247 0.2440236 0.49022797 0.99470615 -0.52524173 -0.69420964 0.22815184 0.5040368 -0.97267234 0.89196706 0.40599936 0.30483323 -0.79672873 0.88293153 0.58276355 -0.05497729 1.4071494 0.54437494 -1.073749 -0.7878928 0.81937397 0.74065757 0.29390287 0.93508977 -0.21823639 1.1829734 -0.90050477 -2.0659115 1.0305194 0.5060647 -1.1545305 -0.3475953 -0.98692447 0.63363606 -0.33161798 -0.72214025 -0.5132725 -0.34850085 -1.6647604 1.2313832 -0.58499706 -0.010055562
다행 -1.0826484 -0.685749 -0.45444992 1.2470876 2.3727894 -1.3833185 0.432579 -0.682951 0.09703186 -0.2869095 -0.5568268 0.22480883 0.7333274 0.4532857 -1.6616001 -0.56901306 1.1185586 -0.65786564 -0.09308697 1.0199142 -0.7713313 -0.23315267 1.3143921 0.6401832 -0.85075873 -0.5150594 -0.795607 -0.03885964 -0.39023322 -2.2288234 0.16384137 -0.22982003 0.9815464 0.7216645 -0.4378024 -1.491863 2.0267072 -0.3000946 -1.3685386 -2.2600477 1.0188265 1.0706583 -1.0544075 0.28448778 -0.8079315 -0.7935093 1.590873 0.42925745 0.6292681 0.92739373 0.3992894 0.43928143 0.77284443 0.5930736 -0.81322515 -1.1447153 0.6054669 -2.198429 -0.72685224 1.0094694 -2.260888 0.14082702 2.415443 2.370863 -0.19113177 -0.7280312 -0.82557696 -0.2110418 1.2914352 0.7110902 0.39577973 -0.2655305 0.5110202 -0.19910574 -1.684767 -0.9393628 0.19236095 0.9808392 -1.1553658 0.32647485 0.9002245 -2.0813558 -0.17650296 -0.5941628 -0.6887917 1.7258584 0.63159996 -2.3479059 2.0242522 -0.3711127 -0.13145334 -2.336241 -0.18768382 -0.26692438 -1.3336296 2.386347 1.058767 -3.2549622 -1.4759564 -0.53566056
다른 -0.11024273 -0.42532468 -1.0252547 -0.81064504 -1.390092 -0.7679831 2.1549544 1.7008406 -1.092759 1.108622 0.57308555 0.58130944 0.65528286 -2.9591177 -0.27440688 -0.029784268 2.2833915 0.0812517 -0.24304335 -0.40620908 0.49810567 -0.23104231 0.58640015 0.54372287 1.0572256 0.47266775 -0.43160418 -0.20784838 -0.26543188 -0.49404064 1.6608971 -0.1931404 0.19366696 -0.10458972 0.42006466 -0.25936353 -1.6753343 -0.86640435 -0.40319774 1.1948332 1.0598278 -0.5574401 0.68240833 -1.2495993 -1.1323287 -0.123809375 0.9171854 0.7091919 0.79489726 0.3723325 0.5809985 1.2586701 0.29655394 0.20765395 -1.4857501 1.8435478 1.5332497 0.7687018 -0.50242805 -0.32165918 -0.13566063 0.33412954 0.6355569 0.112852156 -0.95318377 0.14142673 -0.50948644 1.2143594 0.32802933 -1.2556242 -0.30488914 0.30963326 -1.12425 0.39590883 0.559958 0.23894554 -0.5735414 -1.4990505 -0.24786572 -0.44520813 0.87197727 -0.50627106 -1.1473246 0.78571844 1.1172029 -0.8588666 0.5016916 -0.61480415 0.17661524 0.017447375 -1.2443035 0.77721924 -0.6799944 0.6675014 -0.3965953 0.05150397 -0.07954099 -1.5401627 -0.8470363 -0.19127788
입다 0.23779522 0.2346488 -0.5157884 -1.2155991 -0.44676903 1.328078 -0.05265666 1.1105852 -1.5834125 -0.34442604 -0.38971475 2.0000515 0.7895638 0.33892593 1.3883296 1.6363616 -0.76007473 -0.5350528 0.2982001 -1.2389115 0.4411588 2.4777946 0.37597176 0.16256742 0.7799263 -0.17211957 -0.6718939 -0.6812135 1.1825175 0.3285455 1.6939875 -1.6360381 -0.8506013 -1.4449581 0.925311 0.42655513 -0.28717548 -0.03744563 -0.03787571 -0.27327204 0.07837367 -0.93573236 2.2383087 -2.3243124 -0.26696813 0.11529208 1.0893358 0.5397223 1.0409824 -0.5431433 0.21953073 0.9090164 0.18185972 -0.54447913 0.043516606 -0.77630025 0.9365541 -1.1788514 0.090930186 1.4570292 0.37579504 1.1073513 -0.91285527 -0.06220851 -2.0712924 -1.2754548 -0.10018201 -0.6759323 0.79936725 -0.553141 -0.74228454 -1.5110043 -0.82723475 0.7852611 -1.626578 0.77723026 0.25036478 1.5189062 0.9124555 -1.4510477 0.00062001945 1.5561532 0.10454966 1.9038455 -0.33559766 -0.5547793 0.24155186 1.2684965 -0.2876503 1.540198 0.7794142 0.20219348 -0.36728764 -1.2277972 -1.3423146 -1.8482213 -0.83013266 0.5289087 -0.9150647 -0.93332
상의 -1.1523861 0.9370984 -0.09786141 0.41571215 -0.00943395 0.13571091 0.05686747 -0.5403799 -0.96263975 1.2896436 -0.102053106 -0.21577148 0.11513388 -0.82027274 -0.83282954 -0.83288765 1.0451566 0.70806885 -0.46165067 -0.28027838 -0.45683485 0.34002218 0.57382786 0.38244677 1.0400056 0.09104769 0.3090728 -1.5653881 -0.20201725 0.18999526 0.7436617 0.23078613 0.39666015 0.1767259 0.79672486 -0.2789016 -0.4344068 -0.33837306 0.26739484 1.1833365 0.7487634 -0.3698455 0.1768164 0.22915652 0.2816816 0.4742405 0.11562779 -0.091408946 0.40306962 -0.6027806 -0.7882939 0.35022572 -0.16774783 0.08644806 0.28994188 1.8611747 0.9865791 1.2515923 -0.93897724 1.0979868 -0.025043063 1.1845664 0.28174898 0.23268259 -0.25386748 -0.65975267 0.84121567 -0.16467972 0.6363713 -0.9821729 -0.32799932 1.0906411 0.6739228 -1.1405296 0.5711202 0.59766555 -0.73140794 -0.62750435 0.7865778 -0.7178548 -0.30751806 -0.0011128219 -0.04368284 0.73927414 -0.7272069 -1.1249356 0.7065439 -0.66234225 -0.24446614 -0.18512781 -0.5225962 0.23277587 0.8253884 -0.38498366 -0.32884023 0.06420631 -1.7975116 -0.008535907 -0.2626522 0.09389062
선택 -0.11773327 -0.17784229 1.1206664 -0.8338542 0.15181617 -0.15445314 -0.6605719 0.66960853 1.0698173 -0.13839373 0.49621543 0.12521183 -0.08176021 -1.3606302 -0.15328427 -0.3317111 1.2073115 -0.25081724 0.58432335 0.9115434 -0.09918034 -0.68085724 -0.4557686 0.9461437 1.0349916 1.2074311 -0.013950921 1.9032208 -1.1592542 -3.402433 -0.11355255 -0.35292852 -0.050982878 -1.9010539 0.54061824 -1.2576673 -2.2278078 0.38116348 -0.036576804 0.5141338 -0.074862614 1.5444094 -0.2870311 -1.7140518 -0.23446363 0.23208304 2.043336 0.8158199 -1.7144037 0.37323925 -0.20942658 2.026504 1.888012 -0.55415124 -3.0327485 -0.25284493 0.37329498 -0.22968902 -0.8805924 1.1824546 -1.8666687 0.021992518 3.120766 0.63938457 0.8038194 1.2151109 -0.5108907 1.2820221 0.8226742 1.8616515 1.410585 0.9712195 -1.9197779 0.85909206 0.2127147 0.16322048 0.9640084 -1.5529511 1.5151484 0.09970102 -0.89948696 -1.8680532 0.5047942 -0.09849177 0.6217631 0.14686798 0.7407085 0.14439636 1.9533141 0.43913773 -0.50747955 -1.9295077 -0.7735788 0.4869035 -1.6733627 -0.5127979 1.8038688 -2.467121 -2.0072722 -0.20254202
최종 -1.4176273 -0.18478853 2.0822415 -1.1029617 0.38946706 -1.4035506 0.65753955 -0.6065005 2.0609694 -2.0602798 1.0233145 -0.07048844 -1.6535174 -0.73438185 -1.6955123 0.81090033 1.7623861 -0.69033074 -0.37865853 2.1826992 -0.020892542 1.3881961 -0.059086874 1.341011 1.3726091 -0.42134908 -2.019631 2.5269415 -0.7221936 -2.448815 -1.0121822 1.819764 0.484242 0.20710395 0.26814538 -1.3140897 -0.62816983 0.3873876 0.11510934 0.9752855 0.47861794 1.3537668 -0.22004254 -0.065298215 0.25495595 1.0417829 0.7132056 1.6297811 -0.9623609 0.15485033 -1.9600635 0.89280194 -0.5686385 -0.10589515 -2.2011344 -2.7421966 -0.33676136 -1.4785553 -0.7725526 1.691776 -2.46679 0.8523834 2.6417236 1.9560542 0.27723935 0.93060845 -1.0455917 0.9764083 2.0696232 0.67740685 1.0955898 1.6320809 -1.7008085 1.3999088 1.1547513 0.6119096 -0.24299785 -1.2084088 1.2549188 0.88666266 -0.19885299 -2.3836033 0.81938666 -0.14192791 1.3503083 -1.4583917 0.04695656 0.23496693 2.233204 1.0543029 1.6009554 -1.91202 0.34259027 -0.03683788 -1.9075286 0.95336455 2.0309465 -0.76630193 -0.6140451 0.52342755
변경 -2.5711854 -2.2093856 -0.9702777 -1.182887 1.3518974 -0.46384674 0.66046715 1.3677928 -0.9369381 1.4064451 0.2726647 -2.4704611 -0.12924662 -1.3750843 0.6042963 -1.0868657 -0.37682882 -0.35579494 0.124050334 0.16792865 0.019515779 -0.9092668 -1.1799254 -0.38844898 0.31251216 2.3193288 0.94977254 1.3935561 0.8759022 -2.4650238 0.7128589 0.05619957 -0.8264858 -0.5861163 -0.5467712 -0.49774235 1.1217966 -2.1678352 -0.947786 0.45693362 -0.15890157 0.5079897 -0.24016896 -0.28334966 0.64410543 -0.66229564 1.4790694 -0.681344 -1.1498979 -0.14065976 0.03963977 0.87817013 1.2812531 1.0391893 -0.6824808 -0.2283182 -1.1406868 1.006028 0.10118714 1.6672931 0.26900998 2.123941 2.025053 -0.45391673 0.5971434 -0.083788946 -2.2629058 1.6252725 0.15237378 0.0894287 0.035151884 0.7784632 -1.1067593 -1.6685342 1.764309 1.1831163 -1.8551725 0.18674718 2.455805 1.8813282 2.0097053 -0.37162086 1.447401 0.8004125 0.043063123 -1.5270042 2.112114 0.3447067 0.5016445 -0.13022867 -0.17906344 -0.048076965 -1.1433302 0.5177813 0.60151637 0.8556471 0.6076172 1.8253162 -1.6163659 0.4149992
수 2.0641332 0.099345505 0.097719915 0.7692775 2.0167403 1.3835456 -1.1066725 -0.9170167 -1.4403663 0.2063563 0.600978 -2.5474684 0.37551233 0.7246652 -0.053662676 0.12959246 0.60010767 1.9053122 -0.21440586 -0.21310894 0.1279083 -2.4049885 -0.7074185 0.3980582 2.4714265 -2.864948 -0.52521044 -1.2537794 -0.67502743 1.4107318 -1.6862626 -0.47275737 -0.46075553 0.70149547 2.2130113 1.1467576 -1.1063906 -0.4452722 -2.1259844 0.49137995 -0.88788694 0.9682005 -1.3739185 -0.2256556 0.5238221 -1.0114776 -1.2371253 0.16209579 -1.024385 -1.8614451 -0.35647118 -1.4095782 -0.4247917 -0.80355674 0.35586232 0.52753913 0.79334396 0.3627358 0.872161 -1.9667555 -0.055739112 -0.94482577 0.8008557 0.04795348 -0.7191638 -0.599414 -1.8089887 0.7958674 -0.31667802 0.050029002 0.26992115 -0.2508862 0.06510965 0.65599555 0.96945333 2.4650216 -2.024908 -1.9690422 -1.0822029 0.9908332 2.4960508 0.3303676 -0.66274476 -0.78108704 1.7244427 -1.1931323 -1.1068138 2.9054332 0.7197825 2.6345208 0.044833675 -0.28278232 -0.97647256 0.20452645 1.1067075 0.109884866 -0.8860751 -1.1242242 0.59150964 0.14532606
치마 -0.95420206 1.8267328 0.12770845 0.6654908 -0.8317982 -0.06858786 -0.24333781 -1.473402 -0.86787075 0.7992917 -0.17839308 -0.7231041 0.22702846 -1.1032524 -1.8153596 0.10290886 -0.32404646 0.41986427 -0.5058429 -0.52819383 -0.087913275 0.105784595 0.51273894 -0.003559911 1.339262 -0.49694848 0.29435548 -2.0599856 0.5702218 -0.9906264 1.845154 1.2222663 -0.003179568 -0.49340162 0.7072634 0.2183776 -0.26483423 -0.95353323 0.33098117 1.211913 0.41536447 0.009595196 0.5732301 0.71432215 0.8369921 0.84567285 0.07920714 0.0126184365 0.7269592 0.18634044 -0.8814072 0.3522409 0.8195239 -0.1429961 -0.04935612 1.0887659 0.5813157 0.5632901 -0.3196942 -0.66551167 0.20167808 0.067700945 0.37263328 0.41894192 -1.2980592 -1.6243104 0.10738723 0.8151906 -0.14351828 -0.59490687 -0.91707265 0.6963599 -0.5494347 -0.5442918 -0.34771618 -0.36539266 -0.74766475 -0.8429732 1.2282884 -0.027524022 -0.6019611 0.30205002 -0.05305115 0.62474686 -0.9547203 -1.1326393 0.76213026 -1.3541385 -0.18268716 0.58295435 -1.7139246 -0.04204018 0.5381835 -0.10749692 0.12946808 -0.3533851 -0.7752631 0.9198339 0.47085565 -0.24897425
님 -0.17208844 -1.9312606 1.5316954 0.3109445 1.703215 -3.7507837 -0.10462341 -1.283977 -1.7560974 -0.32757154 1.4521636 0.5123815 -0.8538056 -1.3138174 -0.8623833 -2.1921692 2.074973 0.37923214 0.14465956 -0.14754705 -1.5454221 -0.4782276 0.24942335 0.8542114 -0.24721797 0.19424796 -0.14537333 -0.86358863 1.531722 -1.468061 0.54262877 1.7951381 -0.37894425 -0.36894006 0.14110363 -0.2571736 0.18229264 0.24131355 2.3315334 -1.0587767 0.3796777 -1.5419481 -0.3487046 -1.0516491 -1.3354716 0.06397721 1.7259943 0.8471056 -0.11831656 1.0773482 -0.33966967 1.406306 -1.3261074 -0.7053747 0.98206997 -1.8413459 -0.6647205 0.38097844 0.65165013 -1.0425954 -2.3607702 -2.5442789 1.3681507 0.109954625 1.8858579 -0.38579878 -0.8960669 1.1556202 -0.08328089 1.0140442 0.49334338 1.2040064 -0.0124459965 -2.4841664 0.05243755 1.4282441 0.8801502 0.21315414 -2.1497788 1.7617226 0.15210634 -1.7269758 0.45281413 -0.06986613 -0.73524135 0.15902552 -0.58076316 -0.3644387 2.0344856 2.2160292 0.71812207 1.2579006 0.19456007 -0.14312357 -1.3173608 0.5100222 2.4008086 -0.73141384 -1.1238577 -1.6530075
고객 2.073206 -2.3532202 0.48807833 -0.4860177 -0.41172224 -2.6982388 0.96331215 -1.0193338 -0.45859057 0.01976256 0.04628634 0.30104104 -0.6151408 -1.3426706 -1.9406719 0.40591747 1.9619082 -1.6837691 -0.56068695 0.8925113 -1.7139703 -2.7578757 -0.0047098626 0.02896703 1.2258836 -0.084230684 0.041787364 -1.6976212 -0.48613176 -1.4465672 -1.9238739 -0.115511455 -1.9991704 0.46731263 1.0377743 -3.2444026 0.92121893 0.17879136 2.2145329 0.53829205 1.2344097 -2.2272098 -0.06557148 1.3803024 1.1827545 0.5821632 1.4151355 1.443124 -1.911462 -0.36070108 -0.60187703 0.40104848 1.2209216 1.5420134 -0.24009557 -0.2896049 -1.5804323 -2.3489363 -0.39878032 -0.33369663 -2.7055771 -1.6096164 0.5647394 0.7258414 -0.03213437 1.3323531 0.061426118 1.2010572 -0.78547245 0.9283248 0.61970735 0.09044605 -0.8188071 0.0020177066 -0.9163595 0.78298646 0.09815356 1.0471414 0.4476623 -0.50762546 -0.08871999 -1.3722763 -1.467318 -2.2865324 2.1357384 0.6303648 0.0043261065 0.15122837 1.4662936 -0.32392427 -0.24900392 -1.6527532 -0.5405686 0.83535886 1.670215 -1.0257908 2.0014849 0.123222135 -0.5424509 -0.8759138
포함 -0.52085257 -1.4213982 0.28759667 -1.5891567 0.69279784 0.63704896 1.1204002 0.9181167 -1.1586338 0.63521624 0.9665547 -0.24969223 -1.6289475 -1.143878 -1.4293447 0.6568677 -3.3244638 -2.1786432 -0.023646014 -1.1267961 -0.18341129 -0.6603137 -0.6903208 -0.33442786 0.34126142 1.1349099 0.210633 0.34741217 1.199344 -0.2995225 -0.45342293 0.9777115 -2.2681003 -0.07908218 0.579377 -1.3148687 1.0906092 -0.47831798 0.7190954 1.2806329 -1.601449 0.52118987 1.2032282 -1.1070355 2.3904405 -0.4045624 -0.5381953 1.0625666 -0.36553502 -0.6928713 -1.6673402 0.58845305 2.0229578 -0.101143844 0.25865784 -1.7825805 1.9461716 -0.8031645 1.5094196 0.08883261 -0.8904768 -1.7897183 -0.07331026 -1.4376343 1.4901563 -0.33507875 -2.0877473 -0.6609219 1.4476012 1.342617 0.49678373 1.9894266 1.902364 -0.055278648 -0.96266234 1.2126535 -1.7317502 -1.17707 2.1885529 0.97628134 1.3455333 -0.63920593 2.1668067 1.4764748 0.7291125 -0.65461195 -0.08495535 1.1175071 -0.29403612 1.2334772 0.82694143 -0.7097262 1.0383362 -0.266321 -1.6129154 -0.37993068 1.1257943 1.8219699 -0.54224235 1.8371458
전체 -0.25332117 0.004163194 0.92720735 -1.6286713 -0.12144474 -1.2296989 0.8273821 -0.6508094 0.08758567 0.24423853 0.83742857 0.37885886 -0.5070416 -0.08195183 -0.88348377 1.4012948 0.9904711 0.17899725 -1.1629094 0.738262 0.28154835 1.4219781 1.3049451 1.3401812 1.9437273 -1.0707655 -0.77864933 -0.036938198 0.7553327 -2.0884795 -0.73023534 -0.00017197168 1.4192985 -0.58138436 -0.096306875 -0.66348344 -0.5730862 -0.44937938 -0.72025293 2.0542157 0.99215204 1.4147125 0.11989171 -0.7242685 0.02942617 0.20020664 1.1814977 0.32507506 -0.6629215 -0.4093427 -2.1854162 1.3143157 0.36423382 -0.87231636 -1.9041089 -1.1081994 0.24759157 1.2502104 -0.7405923 -0.17770046 -0.14816666 -0.090689406 2.3437908 1.0559802 -1.1412697 0.48295116 0.8746869 1.3852158 0.32636967 2.0231528 -0.52525294 0.7241371 -0.06764635 0.124824904 0.34363374 0.06370518 0.012092679 0.15691611 0.97466487 0.13743782 -0.72919565 0.03923997 1.2416801 0.9620977 2.231235 1.2483219 0.82023084 -0.5373544 1.4328486 1.5421892 0.11600205 0.003167277 1.0683712 -0.935084 -0.6821935 0.73463637 0.8460532 -1.1289176 0.9545757 0.34901708
원하다 0.5165796 -2.3527315 -1.7798992 -1.0202757 -0.4988673 -2.1358273 1.6312268 0.47180244 1.2567425 0.15462393 -0.6991564 0.50373775 0.96594 -1.6422521 -0.21827425 0.046662785 1.0383608 0.1540583 -1.8646331 -0.5900169 0.3241768 -0.70505774 -0.27987581 -1.4176474 -0.5606544 -1.3708526 1.3587439 1.1165147 -1.3062048 -1.6626542 1.4286301 0.8233885 -0.67931765 -0.6452878 1.9624175 -0.8400245 -0.64786786 0.36205372 0.08782382 -0.1972133 0.03461163 -1.1546961 -0.37239695 -0.26399326 -0.5232378 0.3696741 2.018026 0.27291253 1.0897615 -1.3896775 0.8437197 1.5816662 -0.86657983 -1.3882444 -0.3275614 -0.10701626 -0.3422044 -0.70027953 0.26896933 -0.055826023 -0.28951326 -0.4390115 -1.06598 -0.80953735 -0.080066144 1.253282 -1.4979211 0.9234159 1.0527432 1.191241 -0.37417856 1.798377 -1.2904059 0.19288763 -0.47162247 1.1571897 -1.1153698 -1.0292038 -0.90744144 -0.007324519 0.7679129 -0.3437994 -1.413212 0.5251894 0.7078464 -2.1832635 0.17178214 -1.2012306 1.6124356 0.3512252 -0.49156907 -1.5666611 -2.6673467 0.3648277 0.20433904 -1.7364805 0.73354053 0.13940349 -1.0073553 -1.9331428
종료 -0.84547514 -1.2110716 0.6683054 -0.24123245 0.28149965 1.1293163 0.7496101 0.119945675 0.66265625 -0.30862808 -0.08353537 -0.5263617 0.18597443 -0.30984348 0.30861902 0.42836994 0.6416484 0.07330096 2.788374 0.4426629 0.38038543 0.91009 0.03757643 -0.5237347 -0.9898588 -1.5326607 -2.5419436 -0.17067176 -1.0986364 -0.93666226 0.031781387 0.4641699 0.076489344 0.14650445 0.13438955 -0.47550538 1.6972342 1.5495853 -1.6419877 -0.9458499 -0.7028758 1.4217592 -0.098094165 0.6753912 -2.179799 -1.5844908 -0.052734815 0.0024726088 0.68261397 1.478015 0.66727763 0.6532066 -0.61500967 1.6681147 0.6985869 -0.6089197 -1.2133785 -0.36108857 0.60192245 0.9326041 -3.013341 0.8779279 0.19292787 2.17688 -1.0403568 -0.5746448 0.8196435 0.36776885 -0.79907835 2.5766244 1.1665146 1.1175611 0.39182824 -0.6529176 -0.32123673 -1.2216974 0.28584248 0.076795675 -0.84955806 0.8405545 0.90176934 -1.125254 0.45591557 -2.3174226 -0.09835612 0.28228202 -0.22316802 -0.44331616 0.5883737 -0.4167838 0.9253829 -0.032006927 -0.74288094 0.37102294 -0.048019983 0.18488306 0.6549287 -0.3956054 -0.51276416 0.4357369
기쁘다 -0.6492163 -1.4530122 -1.2918652 0.20177208 1.2106138 -2.005317 0.3573607 0.41679192 0.85698175 0.89673024 1.1681714 1.2490245 0.10829028 -0.6751247 -0.8555817 -0.19400643 1.5827018 -0.8272323 0.63701165 1.2690196 -0.7207327 1.0973642 1.5531665 0.4973091 -0.94023573 -2.1294007 -0.7922556 0.6578499 -0.1586981 -2.5644646 1.0233458 0.76181984 -0.17777407 -1.1706696 -0.63710356 -0.386173 0.36928466 -0.3833125 -1.2485175 -1.7944613 -0.64032507 -0.2580629 0.8680963 1.1474233 -0.93341184 -1.4013397 1.5179684 1.4803133 -0.70274043 -1.3041147 -0.2838571 1.1326064 1.0260216 2.3042023 -0.3261266 -1.5284964 0.23798193 -1.8723428 -1.595829 1.8552952 -4.744183 -0.6261273 -0.31792375 1.297016 -0.43187073 -0.5010207 0.07064463 0.06868158 0.03519664 0.9570651 0.38996363 0.48806325 -0.5502126 0.4967159 0.68489695 -1.5024449 -0.12293363 0.04368897 0.1356815 -0.5967918 1.1272923 -2.019158 -0.54011047 -0.46868718 0.44423783 1.7455715 -0.59390575 -1.8387566 1.810744 1.265774 -1.0615442 -1.2151711 -1.4560333 -0.61321795 -1.3236221 0.47458908 1.4777579 -2.584603 1.5214138 0.36840916
않다 -0.49190602 0.19381201 0.38348135 0.8133014 -0.67112917 -1.37916 -0.34020486 0.098159775 -3.0228984 0.92659515 -0.26629293 -0.5781823 -0.5904086 -2.4486806 -0.8913461 0.23406544 1.5617777 -0.15706892 0.9094142 -0.5755007 0.90059406 -1.1786135 0.6012877 0.07447868 0.5300892 0.98810226 0.2608987 -0.31666386 0.5436651 -0.034678634 -2.235296 -0.17489693 0.049503066 -0.44108585 0.4534834 -0.149749 -0.24304053 -0.9700733 0.50420886 0.23734728 1.1323189 -1.4559338 1.2763623 -0.1647013 -0.53411525 0.060642593 0.58112913 1.2576909 -1.2634991 0.90787786 -0.6160761 -1.15696 1.8215724 0.081708625 -0.08506437 0.6016135 1.7127639 0.22322714 -0.7036295 0.25355858 -0.7807649 0.18611531 0.7991202 0.5034804 1.2129133 -0.23455662 1.2433703 1.079694 -0.30247954 -1.2163796 -0.63438016 -0.10481239 1.476672 0.24145526 0.3729322 1.1456223 0.13322584 1.1507819 0.04773142 -1.589949 -0.08326979 -0.576104 -0.08544946 -0.030116873 0.1987854 0.74006796 0.10245775 -0.24180529 -0.29567167 -0.09210911 -2.2830522 -0.12088527 0.23528728 -1.2614002 0.116384 0.842651 -1.9578232 -1.4128486 -0.5056295 -0.8643352
편하다 -1.3368832 -0.5781469 0.2617083 0.06589114 0.115880795 -0.15654308 -0.8829224 0.9898759 -1.4039294 -0.6813004 -0.79486233 -0.4818805 -0.52026874 1.0111132 -1.1646092 -1.9760538 1.9756485 1.2239349 -0.64973575 -1.1697559 -0.22763573 0.113886975 -0.6193993 -1.7536727 0.12934983 0.48093262 0.6870982 0.43018907 -0.5358885 1.6909225 0.71435887 -1.7442288 -0.28731057 1.6993561 -0.07539875 -1.0794224 0.606107 -0.24379484 -0.24915257 0.975357 -0.20489465 0.34094477 1.0920211 0.9738741 0.60938925 -1.0716505 -0.5253379 0.25735024 -0.56727463 -0.47701365 0.69458765 -2.1468108 -0.19684455 -0.6800285 -0.2509886 0.8492447 1.2939645 0.010603189 -1.0031378 -0.30790105 2.0421534 -0.7033659 -0.89748067 -1.2191936 -0.7119108 -0.48007303 -1.2145495 -0.044364966 0.23170753 0.9606007 1.4234186 -0.20055832 -0.06636924 0.18821436 -0.3970322 -0.3352125 -0.87103945 -0.904381 1.4268026 -0.6408696 0.53556424 -0.17013775 -1.1298058 1.695413 0.4582556 -1.2320241 -0.13770743 1.0525322 -0.41638643 1.0855882 -0.966541 0.80314356 -0.63281816 -0.71542287 -1.2278743 0.39763603 0.7645251 0.17560601 0.5363944 -0.48746458
바꾸다 -1.1124418 -0.9757087 -0.48814598 -1.1434125 -0.6443843 0.7138485 1.1632717 -0.6375988 -0.2939298 0.75548434 0.28371808 -1.0876179 0.36800444 -2.0756676 1.8493925 -0.70150024 0.42106414 -0.25171548 1.2118388 0.16226338 1.121772 0.29638386 -1.3452554 -0.77212054 -0.46286044 1.7266184 1.1793828 1.6948388 1.183328 -2.1088784 1.1493468 -0.6624306 -2.033439 -1.0813131 0.33722052 0.6169804 -0.9259297 -0.48033193 -1.4259467 0.51457524 1.678372 -0.32042658 0.5049425 0.27634212 0.6659793 0.035042137 0.7112368 1.1826272 -0.93241096 0.6641288 0.38442653 0.83875364 1.8227042 0.2961195 -3.0282836 0.19381829 0.6527793 1.2377796 -0.51395 0.6561983 -0.53311235 2.7954915 -0.15340656 -1.0946778 0.43118617 0.4597623 -0.43662614 0.47497177 -0.22100899 -0.666387 -0.41197297 2.1191614 0.19323637 1.3449532 1.5178154 1.5161047 -0.8717196 0.30011562 2.0911608 0.71722275 0.9691209 0.23028769 0.8327293 0.8709772 -1.4868304 -2.5632114 2.206654 -0.59839064 -0.51629305 -0.36227638 -1.7969234 0.29930434 -2.0141559 -0.36899984 -1.958783 0.16811846 -1.541512 1.3297405 0.17246874 0.14110377
다 -2.253204 1.3091735 -1.1356944 0.7477624 2.0568707 -0.8458185 -0.41523057 -0.14276968 1.0092825 1.383215 0.9405032 2.0085742 1.7644517 0.28897747 -0.3193364 1.453578 1.5960088 -0.06429709 0.20996252 1.7199059 0.97096705 -0.5714232 -0.98316586 -1.315302 1.3154619 1.8573655 0.29234543 0.7101943 0.061590414 -0.49504998 -2.2367876 -1.7567078 1.9152277 -0.63684094 -0.33522803 -0.31921127 -0.73923063 1.364609 0.5924966 0.7767167 2.0689237 1.7922455 0.14392799 1.4337566 -0.0693086 -1.441987 1.227469 1.0076298 1.1974889 1.9364408 -0.09512372 -1.3132219 1.2745576 -0.4464651 1.6025163 1.1968197 0.46182236 -0.54999673 -1.7334363 -0.63219285 0.4905452 -0.20934515 0.5181869 -1.367175 0.28567445 -0.23304091 1.1694356 0.8581504 -0.7051365 0.6452444 -0.4696623 0.36290762 -0.8133767 -1.9480497 0.12681296 -0.321397 -0.95373774 0.0342755 -0.9063592 -0.9659095 0.3193844 -1.9596735 -0.8319879 0.22032641 -0.7859045 -0.74167323 1.4853228 1.6516984 -0.11322657 -0.019556144 0.99368566 0.46459046 -0.13592438 0.45800465 -0.1869462 0.3163065 -2.7365482 -2.0845883 -0.8589433 2.7198534
너무 -0.5834737 2.4284303 -0.9757378 -0.11486202 -1.2214758 -0.95799434 0.54835 1.7137924 -1.7454126 0.50337476 -1.7469522 -0.27699545 -1.6195931 -1.2082438 -1.0254425 1.7333069 1.0712235 0.41070813 0.3942317 -1.0198019 -0.07588641 -0.9162543 -0.52491874 0.054414194 0.36588174 0.21667743 -0.009478789 -1.8716131 0.27319938 0.35981336 0.33396715 -0.58770996 0.14164864 -1.2634065 -0.22422992 1.5331503 -0.2708023 0.3080966 0.43681598 1.9284757 0.6541229 0.6984379 -0.9553716 0.062126033 -2.497047 0.52521634 -0.40786254 -0.85731125 -1.121648 1.0669776 -0.5898014 -0.14574692 1.2951058 -0.30130497 0.09555643 -0.727262 -0.15918139 0.4544779 -0.9069992 0.806934 0.54952216 -0.21180665 -0.25978798 0.846383 0.047766928 0.17486589 2.9420187 0.62598807 0.85573655 0.86002946 -0.7413115 1.5588343 0.21869014 1.8382148 0.5240994 1.4900086 -0.72904617 1.1665729 0.16559477 0.03920341 0.9595781 1.0262954 0.10901543 0.79558045 0.452541 1.8420794 0.060190056 -0.13329333 -1.4273679 -0.16201282 -1.0450705 0.5550282 1.456355 -0.4387367 -0.6422765 -0.2633771 -1.5561477 -1.1169882 -1.0973939 -0.10973766
입 0.25015187 -0.5999491 -0.6775529 -1.1596463 -0.20178969 -0.14951757 -0.6289527 1.5509179 -1.7675166 -0.635527 0.21408573 1.4091775 0.25394827 0.9659697 1.1936953 -0.5502452 -1.2377318 0.44427785 0.50437826 0.07768875 1.1138127 0.8190434 -0.23388492 0.0093663195 -0.2801093 -0.58215594 -3.01937 1.0258744 0.36729074 0.65605414 2.1424134 -1.5439688 0.5331575 -1.8917499 0.7739814 -0.76894975 1.2537632 0.07218339 -1.7047967 -1.1619093 -0.44697785 -0.43151477 2.596249 -2.5650702 -0.79334646 0.48829985 1.4686973 2.2415624 1.3599281 -1.7677841 -0.22265312 0.50412005 -0.2858804 0.6064345 0.31435224 0.054935336 2.6709912 -1.3465887 1.0989454 2.8673024 1.6974784 0.8218278 -2.2292879 0.06931488 -1.3856772 -1.5929359 0.2301956 -2.721154 1.6798433 0.32813632 0.35431886 0.9641884 0.012720417 1.3638501 -1.3512425 -0.056357384 -0.6733253 0.12018631 -0.4617103 -1.1519415 -0.30564538 2.0348935 -0.27251807 2.4647152 -0.1372497 0.5204723 1.6518059 0.5719587 1.4333458 0.8807426 0.5677699 0.7246574 -2.18102 -0.22440721 0.028906673 -0.9119007 0.0245729 2.0091264 -1.595665 0.44858104
코트 -0.94146675 1.6584604 -0.5937129 0.8939589 1.0369335 0.11086322 -1.3746544 -0.611598 -0.8512921 1.1826895 -0.5637607 -0.5584397 0.6415352 -1.3759763 -0.8073649 1.1096554 -2.0040863 1.5093842 -0.38456172 0.28593346 1.0010664 0.009649673 1.1354982 -0.09040699 1.4406976 -1.0503222 -1.2239112 -0.44741443 -0.37334555 -0.593616 1.4750137 0.77357227 0.10067682 -0.51574624 0.7666359 -0.23887683 -0.7003828 -0.31493074 0.42225423 0.90383637 1.0873709 0.44293234 0.19222976 -0.25687847 1.7945849 0.057313286 0.9659542 -1.4577581 0.6521916 0.7702817 -2.0919585 -0.5441165 0.37199703 -0.2783606 0.05279862 1.885762 -0.21048535 0.031656098 -0.0069831847 -0.081389815 0.29624173 -0.5979915 1.2737157 -0.63240165 -1.1086977 -1.0503048 1.02945 -0.60634667 -0.21731533 -0.22501343 -1.5095403 -0.16454661 -0.2158855 -2.2979198 -0.5223676 -0.5654392 -1.5223268 -1.0415795 1.7363238 -0.06727487 0.37635538 0.15144733 -0.2568839 -0.20688903 0.24213149 -1.7747339 -0.12830417 -1.1979865 0.19417588 0.71394944 0.008805098 -0.5047656 1.5306736 -0.13376138 1.0484434 0.28415355 -1.0155851 -0.007371292 1.9936596 -0.5532436
줄다 0.82639164 0.22185668 1.2819724 0.27033126 -1.3752307 0.4793437 -0.46643528 0.40115738 2.0079064 -1.9429154 0.749531 -0.64647657 -1.1051177 -1.4358972 0.44427592 -0.48941872 -0.54402673 0.71337426 0.62832123 -0.37324867 0.3851727 0.35141027 -1.2033554 -0.8186393 -0.51727414 -0.22628428 -1.2992378 0.31013614 -0.9700448 -0.5397629 0.08825615 -0.30123848 -1.1756288 -0.4656953 1.6797364 -0.30550522 -0.7736053 0.06439276 0.002695692 1.0194125 0.63862395 -0.44612622 0.3047176 -0.24715121 1.5237633 -0.4533117 -0.33766183 1.3452319 -0.12786473 0.30990294 -0.22001638 -0.7083237 -0.77729875 -0.6203121 -2.6498065 -0.051598493 1.3930863 -0.13187115 0.44972274 0.18154831 -0.86765426 0.37265453 -1.4288296 0.24591595 -0.13771428 0.6615981 -0.01780575 -0.66175073 -0.61550856 0.21601996 0.9731952 1.2569963 0.5230483 0.11391554 -0.5072528 -1.1060715 0.14548872 -0.8897672 -0.18487959 -0.031780884 -0.043309473 -0.4288946 -1.2811837 0.2637987 -0.5575771 -0.7302205 0.10297627 -0.49785122 -0.48556972 -1.1863596 -0.44081628 1.6527759 0.52405053 0.24062769 -0.44942275 -1.0422815 -0.84695435 0.8805657 -0.24737942 1.3592895
주다 1.0928444 0.18435931 1.6436921 -0.38883922 2.7343817 0.15444012 -0.90577865 -0.60311884 0.41576487 -0.4434257 -1.8074485 -2.2694118 0.7274139 -0.8450318 0.08710322 0.90673757 -2.3646855 0.7688797 -0.7841094 -0.082260184 0.2506804 -1.336961 -2.1216207 -0.62086445 -1.1863703 -0.28975275 -0.14426349 -1.0923928 -1.87778 -0.24427001 -0.8346256 -0.6045601 -0.5491873 -0.14846085 0.8560231 0.08909473 1.3355561 -0.15650971 -1.2997063 -2.2172506 0.27038258 1.7764789 -0.81934845 -0.881991 1.5456846 -1.5061767 -1.4243268 -0.5908443 1.1373818 0.30312556 -1.9971966 0.07241843 0.5274003 -0.60021406 -0.5786673 -0.07861236 1.1406366 1.3777424 2.5724094 0.4083071 -0.050483514 -1.297155 1.2310259 -0.097546525 -0.34693873 -0.27432296 -1.2360047 -1.1833371 -0.35183138 2.91608 0.9977004 1.3759203 -0.07412854 -0.90811557 -0.81388605 -0.36179274 -1.1883416 -1.8360994 0.97888476 1.359632 0.08604745 -0.6150092 2.3008988 1.2446202 -0.36933377 -0.3907454 1.2390049 -0.453352 -0.5959836 0.94604075 0.36950794 0.9356689 0.17652148 0.56340206 1.9382163 -1.2203507 0.1513045 0.07696913 0.62728226 1.9372865
해보다 0.5908765 -0.48264736 1.2350944 -2.237565 0.7980872 0.53509736 -2.1881135 -0.44790885 1.2207648 -1.6413559 1.4683102 -0.38911998 0.9564062 -0.6061232 2.476167 -1.0365143 -0.5934215 -0.65762895 -3.5953772 0.3755364 -0.9257101 1.6827475 -0.6531007 0.61607945 0.08211859 0.3957366 -0.29453737 -0.00020392342 -0.8003747 -1.2045115 -2.329027 -0.5040084 -0.50677407 -1.1111808 0.24747026 1.5010272 -1.5644885 -0.21757 -0.91655177 -0.3930046 0.13247946 -1.6278043 0.63241696 -0.00042865012 1.0972309 0.23106833 0.09544577 2.7712088 0.3391928 -0.6643349 -2.6303928 0.085656896 -0.50044245 -2.1841629 -0.60426104 0.8815086 2.19658 0.37455183 1.4916159 -0.19744098 -0.86883855 -1.4256455 2.2083082 0.4879484 0.58290017 2.387949 -3.323914 0.064432845 -0.26941565 -1.0611631 0.98764765 1.6333016 -1.8215535 -1.6785628 0.40943545 -0.81444126 -0.5857419 -1.2808487 1.6906574 -0.07067602 0.46197522 -0.8382965 2.2199402 1.8436613 0.30196974 -2.3543553 0.90522325 -0.34808928 -1.3773276 1.6364369 -0.55663085 0.6122286 0.18728401 -0.7875144 1.2803277 -1.9338458 -0.6531251 -0.9855701 -0.55019265 0.19745678
오다 0.57009476 1.4738576 -0.7265144 -1.0445269 -0.47193846 -0.4822 2.6606553 -0.6915146 0.74568313 -0.43889612 0.59668547 -0.8528449 -0.31888455 -0.72526807 0.18048869 -0.1259759 0.287498 -0.0029290617 0.2136639 0.4292365 -1.541 -1.5130954 2.0419674 -0.37742287 -0.28508317 0.31233492 -1.8536774 -1.5445589 -0.016544947 0.25399247 0.9581065 -1.344832 -0.110263996 1.1694047 -0.26268402 -2.5935543 0.4615943 0.7129784 0.7208396 -2.174102 -0.5547285 3.0608816 1.1903354 -0.688831 -0.18236919 -0.18706046 1.7279967 -0.8948591 -0.32142347 2.7908056 0.11259763 1.1282681 -0.15943353 -0.22494438 -0.8370307 -0.35849416 -0.9744441 -0.29659924 0.5904137 -0.07595786 -2.0535822 -0.8175098 -0.6100855 0.8326371 -0.3234192 -1.3123443 -0.98662984 -0.71105456 0.8963428 -0.26626688 0.9212157 -0.19946186 -1.080297 -0.17664716 -1.4863092 1.577584 1.0383373 0.29370925 0.5944779 0.69668275 0.5556585 0.25936818 -0.7711944 -2.1089284 -1.5478847 0.09294122 0.5503498 -0.5519083 0.41625005 1.254645 1.1786578 -0.52789533 -0.5700893 0.59205544 -3.050376 -1.5504096 0.93598306 0.6365416 -0.4073458 -2.6993487
자켓 -0.4904602 1.0171429 -0.07384571 0.11688142 1.9066427 1.3422168 -1.751921 -0.38281897 -0.9886327 1.3205535 -0.27003872 -0.43408197 0.16145577 -0.24608362 -0.19274275 0.20256728 -1.2938403 1.2901715 -1.4980161 -1.0382051 0.11458981 0.13883543 1.4233623 0.07346485 1.0680377 -0.7709713 0.16683473 -1.8135362 -0.11956916 -1.1984262 0.74677014 0.1981635 1.1347742 -0.13744569 0.10231138 -0.40696096 -0.533485 -0.65701747 0.116221115 1.349988 1.301407 0.49259335 -0.08115092 -0.2631355 0.99614674 0.53383374 0.2969824 -0.45647842 1.5634161 1.1853693 -1.3766577 1.0366306 0.8990589 -0.3230459 0.7414626 2.5456014 0.5128266 0.6873113 0.005420434 -0.62817484 -0.08225633 -0.37071496 2.138897 -0.16193216 -0.036492128 -0.45605284 0.51702213 -0.99403715 0.09596284 -0.160354 -0.40565535 0.6874086 0.0010611826 -1.7190174 -0.61481154 -0.29379493 -1.158504 -0.78747094 0.72094697 0.07559679 -0.42231604 0.10565399 1.1955588 -0.43465453 0.18824819 -1.3029095 -0.6417483 -1.168545 0.40152928 0.4045904 0.5370892 -0.76661634 0.998519 0.45472288 1.1442784 -0.51841235 -1.1339142 -0.1738913 0.4231703 0.006241253
적 1.2300346 -1.0936022 -0.66338927 1.8291194 0.8655603 -1.0074023 -1.0375372 0.062439248 -1.4501578 -0.92176163 -3.6379323 -0.9230767 1.233945 1.9263167 -3.5821395 -1.2004945 -0.9536235 0.08321157 -0.46831942 -1.5508711 -0.3204547 0.7721262 -2.314901 -0.933313 0.72634184 1.7372564 1.7945482 -0.09669987 -0.27107516 2.9147272 0.34564227 -0.5808823 -2.6710134 -0.25853083 -0.883661 -0.9578976 0.10317592 0.7549311 1.6265198 3.2747047 1.7365487 -0.94493 1.6057876 -0.6828295 -0.68086135 0.12804547 0.15332136 -0.89725477 0.32299152 -0.8983787 1.2371696 -1.4223566 0.62513626 1.0689377 1.4080676 1.4442992 -0.76052874 2.6738684 1.550813 -1.5676372 0.16968986 -0.43188152 1.5859355 -0.95497435 0.089700244 1.7272348 1.3876567 0.60849285 0.011280075 0.61368024 1.0995576 -0.4797646 1.1456232 -2.9730344 0.9914786 2.048668 0.27321982 -0.6924739 0.37433636 -0.7557944 -0.4930459 -2.1474824 0.32792294 1.0643888 -1.1877986 -1.4173303 -1.2549891 0.44772944 -0.36238945 2.3474617 1.0859078 -0.33802354 -0.93385285 1.765561 0.48428267 -1.9823489 0.70586556 -2.063844 -0.6946412 -0.8800888
소재 0.8334292 -0.880121 -0.31683305 -1.0876989 1.7616036 0.61473346 -0.08070793 -0.11154726 -0.8007178 0.5261916 -1.5808319 -1.6131539 -1.0239912 0.49602717 -0.9453834 0.42233056 -1.4628911 0.5459902 -1.455294 0.1953263 0.9624785 -0.17310546 -0.6631505 0.37607023 -0.4370399 1.9185011 0.020517323 0.73154587 -0.88472414 0.89117134 0.9248779 -0.964849 -0.22161938 -0.15888792 1.2213856 1.8106046 0.8353856 0.04164001 0.33505782 0.2855908 0.86905146 1.7533704 -0.49747774 -1.191748 1.887406 0.07076042 -1.443704 -0.6919902 -0.31569812 1.2473814 -0.1837393 -2.2177367 0.28757215 0.9366055 1.462696 1.1412926 0.7701891 -0.9315342 0.3795131 0.4012498 -0.40323812 0.3574901 -0.060542136 -0.82372624 0.6745046 -0.8214501 -1.5731472 -0.31132904 0.675066 -0.927562 -0.85287154 -0.3507672 0.02609875 -0.645625 -0.46283147 0.975308 1.2546419 -1.643017 1.3590968 -0.5814945 -2.479939 0.17849061 0.7526189 0.811386 -0.58987784 -1.8662639 0.03925108 0.21161601 -1.3592422 1.0301214 0.069445945 -1.5583551 0.5015418 2.7634194 -0.506698 1.2685513 -0.94012916 -0.88814825 -1.05742 -1.0069245
정말 -1.4616916 -1.2132684 0.53823316 1.7695978 1.1281507 -0.32901427 1.0788814 0.38081518 0.035430506 1.2084137 -0.8856137 0.80318636 1.5974164 0.065513976 -2.0142503 0.6129874 0.015747663 -1.1041658 -0.20862949 1.1568704 0.24984142 -0.67376184 1.3757436 0.77391285 -0.81435597 -0.3734055 -1.4303185 0.6060523 -1.0126272 -2.40865 -0.6483163 1.0258952 0.73282146 0.8293794 0.81521404 0.15712446 -0.06098413 0.7935908 -0.03825322 -1.4165379 -0.51281786 0.26341033 -0.9912246 -0.34444708 -0.6067748 0.090601966 0.4185091 -0.77342117 0.3295067 0.80409807 1.3023777 -0.026450584 0.4138302 0.03805116 -0.012466054 -0.580465 -0.62935054 -0.4930537 -2.0606148 0.09783343 -1.6470778 -0.17336884 1.8030081 1.236999 -0.70343184 -0.6789203 -0.13306382 0.47364777 1.9415572 0.57150614 0.05321298 -0.41704363 -0.29454818 -0.49501607 -1.3798013 -0.93789417 -0.43640473 -0.30260995 -0.00050122815 0.2424737 0.91993326 -0.8274398 -0.44775566 -0.6588315 -0.07334779 1.9106255 -0.70288354 0.17618163 1.0149858 -0.64027184 -0.8363947 -2.2767696 0.15121873 -0.40818477 -0.8742437 0.37696493 0.71023315 -2.2008898 -1.6025499 0.06951075
컬러 -0.3841279 -0.66607493 2.552348 -0.09287236 2.2622204 1.9105802 -1.5155581 -1.0554615 -0.5311683 -1.6827751 -0.59565157 -3.9959757 -0.00812538 1.4710057 -0.24846992 -1.2613317 -2.6350002 -0.91792804 -1.1167927 -0.093181886 2.98507 0.22421472 -0.59515077 -0.7648196 0.28577608 1.5882684 -0.004502971 -0.38187265 -1.2905617 0.21236171 0.29537785 -1.8625206 -0.40345114 -0.8506479 -1.7161192 -0.029471861 2.0681927 -0.5565721 0.032661945 0.80782 1.9662956 2.1681082 0.7749664 -1.7755028 2.2579377 -0.39432037 -0.80591017 -0.12851156 0.61694515 1.9492352 -1.8197289 -0.83032703 1.6657411 1.2946823 -1.0051022 -0.06815188 0.49677312 0.46896648 0.39889285 0.27781132 -0.43987617 -0.10969622 2.089833 -1.0557497 0.31619206 -0.25399062 -0.41586274 -0.4623553 -1.3710116 0.6616167 3.0053499 0.8990136 -0.8092 -1.4496129 -1.045325 -0.030367244 -1.5757457 0.88491017 1.0206956 1.5002675 -0.06124236 1.6814822 0.8175527 -0.7618009 -0.184722 -0.96286064 0.7162725 0.53015447 -0.39768174 0.7013805 1.9285138 1.9569253 -0.18233547 0.86972934 1.9646707 1.0965765 0.809066 0.5817608 0.6783613 1.9213209
블라우스 -0.67945665 0.6116143 -0.09069684 -0.4548975 1.4789695 0.67720205 -0.3647063 -1.3182245 -1.17 0.5637101 0.22882424 -1.2744339 0.5547577 0.38439435 -1.8838356 0.64948845 -0.8564801 0.8864328 -0.52442205 -0.8603453 -0.6137582 0.5289501 0.6492472 0.85506386 0.3793487 -0.83349895 0.46289024 -2.8675435 -0.27106994 -1.100506 0.9702298 0.34051812 0.67956865 -0.24839428 0.48744467 -0.37925705 0.1091408 -0.39735273 0.1424244 1.1679286 0.96257246 0.038196173 -0.8169542 0.14460066 1.5477433 -0.04462346 0.42841014 -0.11558862 0.9586856 0.16937603 -0.64376277 2.0798743 -0.40875036 -0.032823477 1.487295 1.0952235 0.7863231 0.924769 0.8955395 0.03367748 0.42262992 0.23052281 0.8936217 -0.03826055 -0.34781632 -1.4804512 -0.27974254 -0.34574565 0.07956884 -1.2099141 0.10822282 0.8913306 0.41735613 -2.0804365 -0.63458276 -0.15262283 -1.9655753 -1.0638291 0.7339952 0.4637883 -0.5069512 -0.420977 0.50023514 0.06792697 -0.6102385 -0.89917743 0.96724707 -1.5485188 -0.27802837 0.5185582 -0.31893975 0.0830555 0.34553835 0.035201766 1.3336998 -0.2122829 -1.1243794 0.35906 -0.44614854 0.51676595
가디건 0.30777538 1.3482904 0.73288226 0.08963044 0.8683495 0.7487971 -2.5706723 -0.47392088 -2.341578 1.812703 -0.48383453 -0.63016695 -0.9419975 -0.9194988 -0.4898972 -0.26922813 -1.1562147 2.1207626 -0.78099203 -0.28351995 0.5614549 0.21183947 1.0232807 -0.24820656 0.6793201 -0.37684384 -0.59730417 -0.8986506 -0.30737144 0.14559123 0.74722314 0.07275921 1.221475 0.41001484 0.9967878 -0.6248494 0.08406382 -0.30993688 0.124854356 1.217998 0.11609455 1.0508139 -0.39029446 0.37329033 1.6624575 0.15236083 0.7834166 -0.81438977 0.7860699 0.39548442 -1.2810689 0.638896 0.67562014 -0.6781208 1.1461533 2.7011955 -0.20335965 0.37354046 0.308943 0.25288194 -0.10699686 0.45355916 1.140111 -0.52216274 -0.98043597 -0.32483473 1.3346336 -0.88830376 0.5793807 -0.8653683 -1.0547665 0.4128904 0.10478318 -1.0480479 -0.9450436 0.17257945 -0.7130081 -1.1394682 0.27203056 -0.1292077 -0.29885152 0.1356235 0.13115938 -0.011295459 0.73293334 -1.3246286 -0.029899959 -1.196418 0.5020944 0.6621585 0.86135894 -0.0027803152 0.2819727 -0.69219846 0.14905295 -0.103564784 -1.3274658 -0.6947062 0.19054061 -0.81154364
가다 -0.112814 -0.21720614 1.292261 1.4806063 -1.5867356 0.6426151 -0.044911224 -0.03200244 -1.2185428 -0.3582145 -0.58947825 0.60820866 0.40512887 1.2331383 -0.4429736 0.19286977 -0.78147876 -0.12905459 0.7634667 0.84067714 -0.41700977 1.6079735 0.43098333 0.48537472 -0.16353008 -0.95739126 -0.6530354 1.6955626 -0.06108207 -0.1516566 1.3737332 0.3704976 -0.60798097 1.0742677 1.1684852 -1.5382705 -0.15701902 -0.53856003 0.5201277 -0.3494815 -1.827172 0.48230648 1.9490259 -0.7811256 0.5889223 -0.9741576 -0.8641404 1.9994882 0.036922075 -1.101177 1.485395 -0.7350244 -0.334186 1.9698949 -0.52920413 -0.27823704 1.168054 -0.5836725 -0.3983787 -3.3925924 0.7955956 0.25657713 -0.5193715 0.4203733 -1.504976 -2.594239 -0.36596158 -0.6741424 1.6167105 -1.1962897 0.50075203 -0.79387003 0.77094364 3.0242157 1.9519829 0.17333885 0.35889125 -2.0912154 0.76285404 -0.2537842 0.6153881 0.14156464 -1.1901665 1.0862656 -0.6192431 2.0219762 -0.9250998 0.69669104 -0.05464182 -3.0231264 -2.176738 0.36899912 0.40091184 0.57641345 -0.8907403 0.9688014 0.5138498 0.6526099 -1.2794478 0.35787418
갈다 -0.07589928 1.0553144 0.06884555 1.1244131 -0.30125442 -1.0712838 0.113815725 1.3629159 -2.7405622 -1.2744129 -0.5149658 -0.3527952 -0.5589598 1.1209952 0.26653045 -1.365584 0.093414485 -0.6477302 0.7252472 1.3095311 -1.8348842 0.65606534 0.45802525 0.5793581 -0.40107906 -0.3047239 -1.6910952 1.1743293 -0.011405457 0.7422634 2.1706977 -0.27617463 1.0709838 -0.4401238 0.8417558 -3.1584356 0.7814513 -0.2211569 1.2513252 -0.03860882 -1.3939582 1.7371147 1.7382087 0.03926653 -0.59315777 -1.3132917 -1.2046174 1.6314276 -0.38946375 -1.2379303 0.09863892 -1.0047423 -1.1051219 0.9557615 0.5977426 -1.2948061 1.4019375 -1.1153108 -0.081814595 -2.483936 0.929361 -1.1913455 -2.8395977 0.75688577 -1.1883962 -3.0328379 -1.0366093 -2.4327807 2.9134626 -0.43939555 2.4331796 1.1064149 0.47558722 2.0966706 1.1981212 0.06514059 -0.4768938 -1.5660534 0.2459241 0.560833 1.6984695 1.3359655 -0.63655394 0.5659135 -1.2730607 2.2824242 -0.92137355 -0.48542106 0.14944898 -2.4864664 -0.9441284 1.2524292 -1.3697724 -0.32366046 -0.11045692 0.3322399 -0.18235955 -0.9065511 -2.0269215 0.6882086
따뜻하다 -0.9442153 0.8952694 0.44720793 -0.6561638 0.5305998 0.15819433 0.39456895 1.1100636 0.69773096 1.0160428 -0.8852723 -0.24249195 0.18395478 0.13128883 -0.7726828 0.56769377 -0.6455163 1.1005262 0.47412643 -0.5749077 0.8048401 -0.29446468 -0.39355084 -1.1738858 0.68099886 -0.19920197 -0.8521953 0.8504066 -0.4752424 1.1527077 0.22636105 -1.4461036 -0.6368551 0.9024349 0.7030414 -0.44744214 -0.32085302 0.42149463 -1.1501447 -0.070103616 0.16195667 -0.14523824 0.52028424 -1.467895 0.24854803 -1.2403531 1.1044521 -0.92765003 -0.17706561 -0.8691709 -2.128156 -2.6876514 0.58588624 0.23724882 0.54234326 -0.13627768 1.2465965 -0.10565145 -0.24699955 0.1844926 1.0161002 -0.2696549 0.35150403 -1.4224741 0.109928176 -0.6239011 -0.21796939 0.91179025 -0.17514051 0.23143427 0.5841953 -0.7643938 -0.62076384 0.071488656 -0.34001634 -0.3087417 -1.3436692 -1.5468824 2.8425386 -1.0593154 0.1594351 0.42965335 -1.974786 0.6452259 0.5425675 -0.88547474 -0.83570063 1.0080799 -0.24195229 0.5824445 -0.18211614 0.51279455 1.4003214 -0.17831677 0.909879 0.8483612 0.02024315 0.9596015 0.2917221 0.85953903
자다 0.40877387 0.30821753 1.6801697 0.7028515 -0.5002592 1.0892982 -0.77799785 -0.2738225 -1.0643313 -0.8940328 0.10140315 -0.14759651 -1.058972 -0.10402496 -1.0775629 1.3885038 0.24177305 -1.6343194 -1.5911845 -0.5658283 0.13801284 -1.1112142 1.8600814 -2.4400747 1.3664575 1.1319858 1.5655398 -1.5786569 1.5129662 -1.320197 0.07276308 -1.2941552 0.31363425 -1.3633939 0.11031064 -0.89457875 0.23273109 0.18336901 1.4724516 1.285583 0.8218753 -0.118525945 2.09847 -0.70546794 -1.9384137 -0.6714338 1.9050559 2.6913836 -0.2506618 0.17030042 0.036942817 1.701189 0.47778746 -1.272772 -0.4316358 0.7205921 0.802079 0.5394935 -0.8614887 -1.4952024 1.6938998 -0.1392872 -0.13736948 -0.09687997 0.75809425 -1.1474297 -1.4109186 -0.047292583 -0.7795469 -0.55783075 0.9729347 0.7360463 -0.259979 -0.9942867 1.2437171 2.7072048 -1.8360107 0.04137986 0.10747105 0.010171063 -1.4705006 1.8549953 -1.1207377 0.0020013822 -1.3355833 -1.4119397 0.1309882 0.39945033 -1.0660847 -0.8594681 0.99219894 -0.5338051 0.6680831 -0.7382015 0.8762463 1.0140224 0.633055 -0.64326054 -0.31379902 -1.1791261
괜찮다 -1.0448184 1.0779337 -0.21177405 -0.4997178 0.21518405 -0.39857247 -0.8220812 0.7801501 0.80463856 -0.77299434 -0.14220923 1.0406966 -0.9487842 -1.2522057 1.050647 -0.51595914 1.8151149 -0.10131492 -1.1715845 0.5399384 -0.6927085 -0.23589057 0.11142061 -0.1824762 1.9208132 0.4373122 0.8133974 -0.50103205 -0.38411784 -0.20381509 1.4000823 -0.50970507 0.8272354 -0.06845933 -0.0705951 0.13469183 -1.2627525 -0.46805003 0.59112465 0.86454576 0.90338147 0.0030414034 -1.3583328 -0.43159842 -1.3184237 0.8498748 0.9480555 -0.14406893 -0.91229236 -0.7306121 0.27568632 1.3776971 1.1614558 -1.2695287 -1.6878102 0.44542646 1.0611495 0.05214397 -0.33840182 0.282406 0.48851946 -0.45918092 0.04677892 -0.283241 0.67704046 0.9680702 -0.4707665 0.5218956 0.29341778 0.1867884 0.15430988 1.0492307 -0.3053546 0.86452276 1.0667156 0.1397452 0.543306 0.42153487 0.47193834 0.4685157 0.15285847 0.6130579 -0.75819945 0.23713963 1.420698 0.27986833 0.14147413 -1.1909071 -0.3695649 -0.2310436 -0.6264577 -0.26429135 -0.37454054 -0.33870178 -1.5885711 -0.63608515 -0.21693021 -0.365058 -1.3310524 -0.6777155
활동 0.8079505 0.88908255 0.87386423 -0.89475536 -0.9429754 -1.4582165 0.40770096 0.635787 -1.7299622 -1.095657 1.4751687 -0.9050828 -1.0616535 2.4193678 -0.9083066 1.4196044 1.4427906 1.0841898 -1.8895595 -0.67596525 1.8899568 0.8099605 0.026580406 -0.9207424 0.8808595 -0.2532343 -1.6568583 -1.5461415 1.235748 1.1682619 -2.159095 -2.3014817 -0.26336315 -0.626972 0.9375357 -1.2014965 1.5293894 0.8755596 -1.1753509 -0.079547346 -0.6290645 2.2742708 2.4386187 -2.1407623 1.1641177 -1.0641927 0.20651251 -0.4319104 0.3098786 -1.5592533 -1.4246625 -0.5180196 -1.0345914 0.22251 -0.9477993 -2.2097535 2.0610275 0.72040904 1.9540054 1.7550355 0.18435788 1.3881824 0.47401366 0.31117988 -1.3922288 -0.3410303 -0.64068335 1.8445685 1.2591273 0.48379102 -0.38831115 -0.6018094 0.45545775 -0.16086252 0.88126945 2.7499213 0.5050505 0.11151444 2.362002 -0.8325965 -0.88111097 3.0152867 0.38245004 1.9566535 1.877646 0.47249752 0.83854336 2.5150836 1.1504757 1.8226435 0.7264759 0.2622744 0.27791363 0.24628232 -0.31163034 -0.32233804 -0.15095253 -2.0532467 1.2522116 1.8778231
깔끔하다 -0.5844867 -1.0341781 0.13212307 -0.993527 0.87751454 0.010928398 0.31887677 -0.45187584 -0.9084529 0.23204203 0.3860028 -1.1155132 0.973269 0.35821682 -0.43957385 -0.14603885 -0.14345896 0.6820497 -0.67061853 -1.4035658 0.4644075 0.046954956 -0.93708 -0.3880227 -0.20862168 0.65254986 0.42618722 -0.30622533 -0.22546583 -0.22786589 0.0035933263 -1.0466833 -0.58274955 -0.40752298 0.19120547 -0.8393648 0.8707231 -0.19109456 -0.4187876 0.22008908 0.23682292 -0.52279395 0.5672575 -1.2645198 1.2140565 -1.1855382 -0.07455943 -0.065196685 0.890458 0.6327037 -0.86941177 0.13194755 -0.07289712 -0.3927818 0.3445522 0.5979701 0.61842525 0.65096396 -0.13518192 -0.44253853 1.1483139 -0.34132335 0.95015854 -0.9384433 -0.8600721 -0.8532289 -1.0928409 0.040814914 -0.3126615 0.7691287 1.2261823 0.15288842 -0.4847773 -1.2520534 -0.062258225 -0.20751154 -1.7943304 -0.2984741 1.1943313 0.20167294 0.4710621 0.0854767 0.24632296 0.8309835 0.16805293 -0.89178085 0.17503308 0.40387645 -0.16629514 -0.25158367 -0.23178786 1.8605198 -0.35018238 -0.4693665 0.73044455 -0.64354163 -0.049467072 0.114664435 -0.46900105 0.9134816
때 -0.04222124 -0.31101117 1.4607934 1.2384821 -0.1143916 1.3605089 -1.9622058 -0.59395367 -0.5567921 -0.46797052 -0.17675778 -0.13559581 -1.0793718 0.93921167 -1.43951 0.32127878 0.8445139 1.7211246 -0.5684059 -0.753933 -1.3168172 1.4183499 0.41458887 -0.41797912 0.6419313 -1.4661244 -0.06911944 -1.3364315 -1.135632 0.3204604 0.86360055 -0.22076356 -1.4407735 1.5885043 1.9652206 -0.66372186 -0.6110274 -0.6448308 -2.065015 0.24066667 -1.9045866 -0.5895641 -0.98685086 -1.369633 0.68646544 -0.8188606 -1.7328931 1.2462119 -0.44959822 -3.1034548 1.532604 -0.8073823 -0.81129086 -0.0187644 -0.48558107 -1.3814446 0.6671437 -1.1107414 -1.3931377 -2.0575352 -0.20121017 -0.9680487 1.3467481 -0.021385944 -1.6123483 -1.2450454 -1.4194074 1.2029152 0.77789396 -1.0746504 0.22151543 -1.1770357 1.1051822 3.2957332 1.5926417 -0.6019987 -0.5362112 -0.8946351 2.1379135 0.56526756 1.0597075 0.8607953 -2.2771816 0.75696343 -0.6120172 2.6778235 -0.1794942 1.7536035 -0.21950717 -1.6715325 -0.49918446 0.16196358 1.9496808 -1.064087 -2.658105 -1.3158767 -0.6169508 -1.3990366 -1.0313597 1.0290929
단정하다 -0.48836115 -0.2818819 0.17825313 -0.3482593 0.75695914 -0.16764005 0.25463194 -0.054948807 -0.22496255 0.004732947 0.2802715 -0.9788466 1.1624613 0.5960775 -0.043014694 0.35232902 -0.16011924 0.6815381 -1.0221481 -1.6890025 0.21260019 -0.17884049 -1.2574408 -0.19156629 0.2591354 -0.056437828 -0.24147056 -0.118852355 0.041025683 -0.1578855 0.99707806 -0.4434007 -0.57170373 -0.1620964 0.51775354 -0.9547462 0.88613725 -0.26436347 -0.54982924 0.70261306 -0.32482082 -0.6213422 0.6469948 -0.85230166 1.190786 -0.96329266 0.16711794 0.20100726 1.828637 0.7107508 -0.35351828 0.41406664 -0.7603512 -0.54945916 -0.0820884 0.69197774 0.960474 0.20551999 0.24781844 -0.7674399 0.8684392 -1.2683477 0.783932 -0.16994326 -1.0706129 -1.232726 -1.6192333 0.19638382 0.20361961 1.0750566 1.1099834 -0.13748617 -0.18704885 -1.1722403 0.21673632 -0.14136335 -1.3339146 -1.0990126 1.2942641 -0.035704937 0.47544602 -0.30709767 0.15853804 0.4625266 0.3736416 -0.5383429 -0.17460674 0.6137115 -0.17273147 -0.5095858 0.3222394 1.2687877 -0.7219126 0.1986704 1.0543487 -0.6088879 0.26111293 0.69393265 -0.096852496 0.8903773
어서 0.36756137 -1.2298868 2.256244 2.2160022 -1.285234 0.8680199 1.9368742 -0.53422093 -0.25448975 0.052994747 0.10571789 -0.6048555 -0.6433085 1.4941368 -1.0651146 -1.3795238 -0.965117 -0.8703421 -0.8400829 0.9923685 1.1189286 1.5518292 1.9692035 -0.13600768 -1.1097804 -1.1729661 -0.039504196 -1.5715029 -0.23816212 -0.4363596 -0.6258532 0.58494174 -0.69770455 1.393828 2.3243785 -0.50260144 1.3175015 2.0046086 0.8589345 -1.0223926 -2.480914 1.9628439 -0.67675817 0.4607985 -0.8496016 0.9336589 1.892655 0.0201377 0.4609455 0.0042595756 0.707166 1.56873 0.18075687 0.8363857 -0.7362647 -0.658617 -2.769084 -1.2869128 0.9583887 -2.3254507 -3.0761905 -1.5775591 0.8676154 1.0169586 0.8870961 0.09793451 0.837556 0.34388462 0.3443087 1.4470034 -1.0226394 0.9478133 -2.2947955 0.409081 -3.5230758 -1.1342552 0.12660207 -1.1802053 -1.2052636 2.296966 0.66238385 -0.18746777 -0.8823708 -1.3093932 0.6526856 -0.13876604 -1.0185816 -1.914002 0.19637115 -0.6222581 0.5315383 -1.0257022 -0.99479836 1.0209773 -1.3026643 -0.43174484 1.7109897 0.14246194 -1.4263052 -1.6179391
편안하다 -0.6033195 -1.5031607 1.0200258 -0.38823023 0.7978186 0.008308152 -1.0262684 0.4200037 -1.4586563 0.0798589 -0.22674449 -1.2126032 -0.44911623 1.5034752 -1.0575714 -1.1310991 0.6603191 0.8920542 -1.0728217 -0.7904946 0.37118405 -0.15511174 -0.3184349 -1.5375645 -0.2469273 0.42853448 0.6057526 0.29751775 -0.65838826 1.0883921 -0.25702074 -0.8304835 -0.10597878 1.0261128 0.016335601 -1.0171897 0.959099 0.06384033 -0.11596194 -0.045524064 -0.96487784 0.19188005 1.5799509 -0.2138726 1.2524265 -1.0002261 -0.093643576 -0.037042703 -0.25491315 -0.21511048 0.12274598 -1.5211915 -0.009532325 -0.67117244 0.112503886 0.84445965 0.76394844 0.14134969 -0.18608591 -0.14952648 1.5912899 -0.85605407 -0.07360669 -1.2530999 -0.11219088 -0.1127503 -1.0649611 -0.3586354 -0.18772346 0.9465619 1.1616503 0.17462203 -0.3919198 -0.21521495 -0.053277556 0.1888571 -1.4891922 -0.9953482 1.4806978 -0.79644907 0.14989538 0.18623593 0.11282189 1.7763828 0.6607516 -1.5145686 0.2326964 1.0302337 -0.21472377 1.4067299 -0.22564799 0.664169 -0.8085166 0.10436511 -0.11813045 -0.14292325 1.0689474 0.11174364 1.0793743 0.005835082
필요하다 -0.04717814 -1.0653903 -0.69068944 -0.46207726 0.090391986 -0.74146825 0.028912988 0.49166504 1.028372 -1.7907677 -0.15296891 -0.050963096 0.14206196 -0.564407 1.390451 0.20847432 2.244309 -0.15086845 -0.6830293 0.5082107 0.9453303 0.661235 0.5121813 -1.338856 0.73449063 -1.2310126 0.69689125 -0.13354407 -2.128479 -0.5935081 3.1856542 0.18412742 -0.28316715 0.1764092 1.575303 -0.74638623 -0.019673668 0.84931517 -1.4121503 1.2994435 1.2315623 0.112304695 -0.4182473 -0.7090838 -1.931666 0.25083306 -0.06899541 0.29481947 0.020310082 -2.3644142 -0.5817242 -0.48984617 -0.4018326 0.14352117 -0.2020168 -0.50959593 0.023092324 -0.06871356 -0.22889438 -0.51599 -0.51856756 0.29882392 -2.3346457 -0.38456202 -1.4534082 -0.062081963 -0.7350996 1.5376667 0.3141034 0.5061127 0.082658574 1.6052275 -1.7494743 1.6630425 1.8771654 0.9995272 0.31367993 -0.5795442 -1.0295368 0.24664076 1.4650677 1.9700729 -2.0586355 -0.9435104 0.038158577 -1.7987792 -0.102894746 -0.106260866 1.7204659 -0.96134806 1.4611268 -1.0822638 -0.017095946 -0.12171767 -0.08076221 -0.14899217 -0.85749036 0.30884454 -1.6808774 -1.8393947
스커트 -1.2790612 1.5468143 0.83514166 0.041628767 0.74803966 0.512156 -2.346658 -2.479841 -0.5781067 0.72803134 0.40811196 -1.9813961 -0.4041232 -1.4319484 -1.771144 1.030262 -1.6590272 0.7012038 -0.5509351 -0.19497047 0.17578311 -0.28825125 0.5310595 0.06899569 -0.029024066 -0.7675557 -0.50843346 -2.0634167 -0.5746765 -1.5836018 1.034478 1.5542251 0.31825995 0.46294022 0.35492063 -0.022592492 0.84074587 -0.44387344 -0.34478462 -0.017868543 0.22706303 1.3338102 -0.44476414 -0.05520496 1.8352073 0.9290575 0.5458007 -1.1311305 1.026418 1.1645991 -2.5022757 1.0531572 1.3666317 -0.3458933 0.6122032 1.9723647 -0.6598475 0.5467445 0.88212603 -0.71614784 0.22096476 -0.10894421 1.5291694 0.1846604 -1.3786743 -1.0194051 0.17313544 -0.9035235 -0.554762 -0.5078693 -0.44526255 0.6685484 -1.1185906 -2.298859 -0.42298508 -0.80277866 -2.8839753 -1.4345447 1.0551019 0.30345494 0.19948351 0.106269106 0.4749874 0.48059064 -0.9606029 -2.1127684 0.8615175 -1.5180525 -0.042229258 1.2178683 -0.8035628 -0.19410624 0.056426793 0.24575658 1.0928015 -0.21056738 0.061069727 0.057775583 0.88460493 0.19840935
티셔츠 -0.123138286 0.010472022 0.704302 -0.14282191 1.0652752 0.52639544 -0.88144594 -1.3889774 -1.2045137 1.2388506 0.2877744 -1.5464153 -0.3814164 0.43074575 -2.0176756 -0.71694887 0.2572757 1.2491838 -0.8697656 -0.4436938 -0.35167313 1.0384314 0.3377119 0.1948125 0.54751885 -0.36512676 0.54493713 -2.7012548 0.17180286 -0.49369326 -0.4053306 -0.48076305 0.9807194 0.110794924 0.6996751 -0.5692018 -0.20739998 -1.6998575 0.6663878 1.3079898 -0.07165149 0.8667324 -0.32542562 0.18585593 1.7003751 -0.525078 0.7513836 -0.36840552 1.0644454 -0.81266 -0.45243633 1.6254402 -0.040860523 0.026145143 0.42221925 1.279035 0.18913598 0.7477013 0.6307339 1.0996785 0.34111047 1.5822029 0.9518799 0.25679392 0.04011882 -0.8508883 0.07352712 -0.39236313 -0.12376687 -1.2548397 -0.12963605 0.63465965 0.20844112 -1.35713 -1.120481 0.26753685 -0.28252235 -0.32244375 1.2053738 0.52775097 -0.84075624 -0.3730757 0.38602564 0.6153711 -0.6014031 -1.2488596 1.3651177 -1.1523772 0.60696757 1.4503042 -0.34871688 -0.09468217 -0.14845744 0.7750468 0.86662006 -0.3485595 -1.5372983 -0.17029656 -0.04802913 1.0112554
팬츠 -2.6322055 -0.21297422 1.3728439 0.060606714 1.6732563 -0.01588111 -2.11843 -2.9142432 -0.699342 -0.094374806 0.54763126 -2.7436476 -0.8359902 1.8606983 -2.3753974 -0.9910929 -0.6585587 0.8172126 -2.828215 -0.56255716 1.1981946 0.64920783 0.11627246 -2.6680107 -1.3324783 -1.8551724 0.14249317 -1.6356078 0.11679362 -1.156066 -2.0081594 -1.0036424 2.6122363 1.1192117 -0.48471725 -0.37858963 0.3518611 -0.745527 0.29154426 0.0016653979 0.28364635 3.3198438 0.42567402 0.27958706 3.1184614 0.47089252 0.5971918 -1.0350044 2.5700743 -0.291041 -0.8517958 -0.074481286 0.7541269 0.3446106 0.16562977 1.4539847 0.41673654 1.1156334 2.1379366 0.27516723 1.6219114 0.6886376 1.8618816 0.587434 0.85889685 -0.59892386 -1.3696669 0.2810847 0.6235506 1.2577252 -0.05137363 0.50349194 -0.9755433 -1.9927369 -2.072324 -0.51748 -0.73957014 -0.80324805 2.4907207 0.22792469 -0.094560824 -0.7706628 0.6211503 2.4303782 0.77903837 -2.7240334 0.77683485 -1.6911285 0.47862318 2.845581 0.64732057 -0.36457297 -0.021913812 0.20248735 -0.0712555 0.63352144 0.40085375 -2.4351444 0.1271306 -0.10193778
